9996 16
the -0.012059043 0.011690321 -0.011854679 -0.043087162 -0.13921659 0.03857721 0.0622831 0.014730348 -0.008257271 -0.011699591 0.09298956 -0.029239014 -0.025075782 -0.03126786 -0.03597394 0.013665271
and 0.0033191785 -0.03241328 0.03277269 -0.008973653 -0.1046379 -0.022281073 0.023163954 0.034031253 0.00095016224 -0.034731884 0.06483681 0.006159232 0.0071930727 -0.034786828 0.0013331892 0.030775953
a 0.025891975 0.020661663 0.027448546 -0.052255988 -0.1437139 -0.05280628 -0.026166212 0.012152215 0.038516898 -0.021913858 0.102509424 0.005109081 0.017369982 0.02985004 -0.047203496 0.008746953
of 0.021490326 0.028242894 -0.032036647 -0.024597853 -0.07083978 -0.027707495 0.019185992 -0.006752498 0.02814176 -0.004268288 0.11093504 -0.026787821 0.020289183 -0.022046942 -0.05065909 -0.0068746195
to -0.01239847 0.044176422 0.0012140101 0.017758148 0.009006843 -0.028932879 0.0037658894 -0.03610142 0.019463414 -0.021794979 0.007331181 -0.03544949 -0.034408078 -0.005209575 -0.012250642 0.036078405
is 0.035341877 -0.009600154 0.026448935 -0.028136227 -0.16615346 0.02168965 0.05022654 -0.022839868 0.008645779 0.03352802 0.1594368 0.036488764 -0.0061339093 0.015851658 -0.04607341 -0.043406185
br 0.023191582 0.00884565 -0.014467819 -0.019636376 -0.13861756 0.009471631 -0.023191767 -0.014409201 0.042546045 -0.035004586 0.04104212 -0.04911692 -0.030744102 0.020743148 -0.012697478 1.5102953e-05
in -0.006558322 0.022655204 -0.010837797 -0.029542383 -0.06441355 0.017700637 -0.01645834 0.04293885 -0.022055274 -0.010653064 0.05176105 -0.016077252 -0.028064199 0.012663383 -0.008823255 0.009227113
it -0.009615013 -0.0022627614 -0.045771483 -0.065321736 -0.08677611 0.018829659 0.062460836 0.026958663 -0.0036949548 -0.0347884 0.09620529 -0.0045540766 -0.01085488 -0.03603743 -0.059185926 -0.05257789
i -0.005907699 -0.013045122 0.0022254603 -0.05854341 -0.084595785 0.01639424 0.04121753 0.010435034 -0.005988742 -0.0050816345 0.08587967 -0.047213066 -0.00046141102 0.022681382 -0.059809655 -0.043737333
this -0.006865934 -0.029136596 -0.0010927949 -0.05784101 -0.09604485 -0.010185694 -0.005324997 -0.024974117 -0.006113696 0.023536237 0.11074136 -0.044801053 0.06285844 0.0153993275 0.00015769078 0.0134087615
that -0.017142786 -0.041501604 0.045889564 -0.05031909 -0.018976098 -0.034029156 0.041121718 0.0021933762 0.0355595 -0.009018145 0.03631096 -0.019008875 -0.02230856 -0.009521062 -0.05674869 0.043061476
was 0.046507206 -0.029148214 0.03706198 -0.03818409 0.0021650947 0.029530426 0.016964013 -0.0071119335 -0.044732273 0.032466576 0.03578702 -0.03196758 0.043384157 0.0201122 0.042553265 0.021582842
as -0.004457446 0.013698035 0.051011655 -0.0028511242 -0.057936117 0.017757192 0.041579496 -0.0016763525 0.02133505 0.0029339849 0.06471971 -0.020758418 0.027946014 0.004542675 -0.037767358 0.014597083
for 0.003567124 -0.024054058 -0.020608496 -0.014968048 -0.007750633 -0.039207626 -0.048240494 0.02730181 -0.041361693 0.017745221 0.055594523 0.025175285 -0.008064209 -0.030304037 -0.036128405 0.015200893
with 0.017363537 0.051505994 0.008612761 -0.077182926 -0.14222406 0.046714026 0.05275752 0.02269947 0.029471241 0.05160101 0.054321684 0.01070961 -0.02364209 0.00635883 -0.009663204 -0.034200724
movie 0.040403202 0.043728255 0.0824103 0.009157254 -0.07038492 -0.03272197 0.022656724 -0.02632836 -0.008336571 -0.04840158 0.07140751 0.002633292 0.07622851 0.03590606 0.013547406 -0.012943411
but 0.0073978915 -0.030919408 0.03828176 0.020395987 -0.0067038345 -0.036957882 -0.03455443 0.009859648 -0.0073331455 0.007876581 -0.0016805843 -0.02778338 0.051300928 -0.0037396203 -0.012056151 0.021657577
film -0.020154562 0.010893216 0.0074220453 -0.004365915 -0.08482713 -0.038981233 0.010990303 0.013979809 0.022835677 -0.026319055 0.14675644 0.043096215 0.049929976 0.0061520655 -0.008660603 -0.0040501757
on 0.06260501 0.015239418 0.038775112 0.01462911 -0.0502206 -0.03148933 0.029641496 0.0577863 0.004254621 0.0517623 0.03472632 0.0146210445 0.027004976 0.020037638 0.0009087146 0.019791584
not 0.024795592 -0.026618872 -0.0007136353 0.035593137 0.003809943 0.030398166 -0.01795138 0.021188036 -0.036384497 -0.010612142 -0.0160584 -0.020695338 -0.019116012 0.06957419 0.012579926 0.061454635
you -0.044240523 -0.03272991 0.007783627 0.055450875 0.0384568 -0.03407616 0.02413241 0.04936286 -0.0018606774 -0.031116653 -0.04723868 -0.023805384 -0.02476861 0.007532415 0.008997498 -0.053848766
are 0.037623733 -0.047066737 -0.0074231764 -0.012536084 -0.11852825 -0.05908677 -0.011540316 0.0486181 -0.020935008 0.005103144 0.04306334 -0.003524586 0.023709627 0.027062627 -0.012604704 0.031715896
his -0.042165015 -0.005406196 0.04664256 -0.0018347306 -0.054066695 0.058714803 0.03800844 -0.021675058 -0.000107407795 0.027585609 0.023878494 0.021639435 0.033316415 -0.015873615 0.035061397 -0.031235665
have 0.038798623 -0.013940055 -0.03578971 -0.010321601 -0.10379485 -0.05127438 -0.007353846 -0.030453322 0.019539524 0.0052990415 -0.0299557 -0.05192337 0.01792912 0.0071018874 -0.028739767 -0.0016899279
he -0.022899656 0.025669096 0.0030281444 -0.02703032 0.02410801 0.016235093 0.01280988 -0.009077634 0.023507614 -0.010647856 -0.07431431 0.015179238 -0.036720265 -0.02214914 -0.02550045 0.008451879
be 0.03390519 -0.009101882 -0.005981028 -0.011591529 0.031220075 0.038532108 -0.03823094 0.01992401 -0.051888775 0.047357 -0.0069815777 -0.0015255329 0.017526802 -0.0069050654 -0.050639965 -0.014312976
one 0.027235001 0.018824112 0.014271528 -0.04505256 -0.009139233 -0.036365706 0.022808675 0.025207117 0.016486648 0.045185078 0.06836792 -0.03506185 0.01872222 0.01761712 -0.037948184 -0.0075382087
all 0.03754768 -0.0009978692 0.049888916 -0.06909663 -0.10162202 0.0008224227 -0.009076264 0.034982387 -0.0055729225 -0.015642421 0.03541561 -0.024884705 -0.024584793 0.015423002 -0.063861564 0.063601196
at 0.03393752 0.0058251317 0.014712701 0.022178994 -0.08981417 -0.04716425 -0.044798505 0.01655855 0.012606489 0.06872876 -0.006298515 -0.04122904 0.055817433 -0.034020305 0.017704837 0.05484061
by 0.04476404 -0.010741727 0.019499859 0.009469029 -0.038021408 0.05653421 -0.029383281 0.009958961 -0.037192468 0.033298817 0.061923377 0.013464767 -0.019459404 0.054151554 -0.03993105 0.008273953
an 0.0075058276 -0.032219782 0.0031641931 -0.014025983 0.028094092 0.022162478 -0.02343069 -0.034183364 -0.0070009744 0.014821837 0.01239268 0.020782093 -0.019636115 -0.012411929 -0.020676415 0.050168633
they 0.066545025 -0.055589184 -0.037782542 0.039173502 0.002026635 -0.014736299 -0.07647656 -0.06771355 -0.023595883 -0.020441664 0.018743858 -0.031863727 -0.006399075 0.03599042 0.009656099 0.0015011104
who -0.047103282 -0.014643493 -0.013493782 -0.04581472 -0.046151355 0.038291425 0.00078928634 0.002661387 0.0622276 -0.026478497 0.04021133 0.035480823 -0.032225654 0.005426123 -0.018915234 0.016935304
so -0.047776114 -0.017981516 0.03052488 -0.01961788 -0.04544111 -0.02978231 0.05800835 0.01805996 -0.022396365 0.050678328 0.06679568 -0.028075881 0.08724808 0.040008046 -0.070236035 -0.008556577
from 0.027257316 -0.04250352 -0.038680684 0.03137783 -0.0659748 0.023426384 -0.037432935 -0.019745447 0.0001143359 0.026616137 0.0070952973 -0.004618125 -0.009217232 -0.035297427 -0.034554277 0.011623465
like 0.045164123 -0.022889556 -0.032487236 -0.0046020355 -0.031528726 -0.00699011 -0.058079578 0.010998933 -0.018487202 0.038445204 -0.018827086 0.005260778 -0.0014613091 0.040431254 -0.025597475 0.0053396365
her 0.015524224 -0.0039504236 0.008895745 -0.0025696866 0.022004938 -0.0011817605 -0.0123472 0.020338418 0.042783666 -0.007403747 -0.007054965 0.044068802 -0.010341469 -0.01878584 -0.028166523 -0.019606976
or 0.04827072 0.037284594 -0.028800838 -0.039683938 0.044774767 -0.03266598 -0.019216463 -0.02096484 0.061334006 0.06153564 -0.05706172 0.028032985 0.013375981 -0.021715311 0.0027702763 -0.041437216
just 0.002914066 0.04422047 0.01705497 -0.05850556 -0.034083232 -0.021634912 0.07578879 -0.08050131 -0.0109427925 0.027847528 0.045555864 -0.055034064 0.026592402 0.01380669 0.05497139 -0.033565298
about -0.0422332 0.047421977 0.04312108 0.028627 -0.033541374 0.021372156 -0.03912788 0.0138496095 -0.027636347 0.034424588 -0.015681496 -0.030429307 0.022830382 0.022839688 -0.01161209 -0.020538397
it's -0.030443462 -7.685521e-06 0.041634772 -0.046675373 -0.17607692 0.024662536 0.030931992 0.053663976 -0.019338612 0.0028354744 0.08612476 -0.031444658 -0.029472597 0.005333079 -0.04118276 -0.010004107
out -0.030005254 -0.038491644 0.009877869 0.038728356 0.0009595232 -0.0051755905 0.025567546 -0.049381293 -0.057544865 0.032472648 -0.031140529 0.023423862 0.018550195 -0.030596467 0.035352875 0.01757978
has -0.047046456 0.05723683 -0.010786138 0.022845957 0.023754243 -0.0003805798 0.05427632 0.013118875 0.046774387 -0.00086571486 0.0007105024 0.009709594 -0.049293946 0.0140763465 -0.021596946 -0.029933352
if 0.014156131 -0.00067512563 -0.0014659205 0.048458226 -0.106647044 0.005274546 0.013131099 -0.052266795 0.0022160935 0.028519267 0.05128499 -0.0028726496 -0.03289325 -0.041373108 -0.0048187976 0.07140603
some 0.02847179 -0.009908972 -0.057120178 0.011951057 0.057957973 0.036465086 0.038539 0.020763772 0.021097751 0.055942792 -0.0433213 0.03392247 0.011666923 -0.013668886 -0.02015582 0.012228448
there 0.018095488 0.06285565 0.04565745 0.019101802 -0.0761855 -0.042318445 0.02999869 -0.03291846 -0.018712958 0.007861207 0.027289622 0.009451509 0.018639559 -0.01408971 -0.06960971 0.015571409
what 0.0391655 -0.040132154 -0.0047199787 0.06853393 -0.05423085 0.0035933456 0.00023902781 -0.032403607 0.050854336 0.01636349 -0.01798101 -0.015615963 0.0041010664 -0.022359263 -0.06690928 -0.05136544
good -0.04975345 0.00369392 -0.004818318 0.0054054814 -0.083999194 0.051111817 0.013670778 -0.014040855 0.033604078 0.030814538 0.06567654 0.0061757234 0.023192072 0.012254493 -0.05522849 -0.04641066
more -0.0042976644 0.022723593 -0.0040670848 0.032417566 -0.025512466 -0.02277829 -0.0099657485 0.037559465 -0.00055289705 -0.047148187 -0.02026383 0.03216212 0.022055775 0.016454328 -0.009916782 -0.03207341
when -0.029232329 -0.03979638 0.03785961 0.011026904 0.03958946 -0.0063754627 -0.031874057 0.051266912 0.05472155 0.023864105 -0.10922288 0.049811333 0.012726613 0.024009468 0.016789902 0.024820454
very 0.01872874 0.045348644 -0.040786345 -0.040293656 -0.05100701 0.04109174 0.03474056 0.03141618 0.0512972 -0.014583412 0.08589856 0.0016337053 -0.016410423 0.011201561 -0.01798829 -0.051559187
up 0.028960368 -0.00082464016 -0.04285758 -0.043674972 0.053814083 -0.060090013 0.05063256 -0.016017577 0.05892289 -0.022560628 -0.024009231 -0.024127861 -0.016103968 -0.035423182 -0.036734056 -0.047532465
no 0.06259935 -0.073692136 0.031135727 0.0075236782 -0.08028875 -0.10123656 0.06538395 -0.0771359 -0.0362947 -8.104513e-05 0.0063483184 -0.074372 0.040921316 0.020942003 -0.03198336 0.08592381
time -0.049792536 0.0022174579 0.030006776 0.023642156 -0.05749051 -0.004865934 -0.013109679 -0.0021733418 0.064530976 0.029873416 0.08677404 -0.011901331 0.033193685 0.02821922 -0.08102846 -0.027948506
she -0.025556613 0.03603204 -0.013204971 -0.0128317075 0.006595552 0.005531101 0.061869398 -0.036513213 0.017893748 -0.03243329 -0.0031938653 0.010559564 2.9430035e-05 -0.026744802 0.018477712 -0.0014784907
even 0.07120385 0.048065577 -0.02156596 0.020811489 0.024000844 -0.044038225 -0.009553699 -0.103928246 0.042057347 0.046187576 -0.032139022 -0.02136573 0.037917573 0.06406492 0.03836398 0.013184768
my 0.020293768 0.015770258 0.055333417 -0.06729477 -0.046679962 0.01359618 0.00021192987 -0.0043043355 -0.008721914 0.015643781 0.12046034 0.04045268 0.033499684 0.020868013 -0.036122676 -0.036661267
would 0.09031938 0.05066304 0.037268117 0.04265448 -0.06448106 -0.042734303 -0.024015065 -0.020842196 0.008908155 -0.004327377 0.045304056 -0.043012284 -0.028180802 -0.018486897 0.030939884 0.07420869
which -0.011458631 -0.021466022 -0.008293901 0.027540533 0.03794545 0.016730612 0.012523019 -0.033721562 0.011226055 -0.020011906 0.03533128 0.009276921 0.018825687 0.016460657 0.025750194 0.043285996
only 0.07162782 0.019935144 -0.068823196 -0.05672737 0.026230425 0.021348668 -0.008496309 0.01290792 0.028936038 -0.049129054 -0.019918809 -0.051589098 -0.009290359 0.010276742 -0.038264483 0.013200131
story -0.0135718305 0.028910799 0.009356137 -0.06282518 -0.069686525 -0.03110863 0.029455505 -0.0004559023 0.027925193 0.024443973 0.06174516 -0.012579869 -0.025992174 0.002059624 -0.004093718 0.024173511
really 0.0036008204 0.052970316 0.027515605 0.0025155647 -0.11072741 0.020405207 -0.0036005906 -0.0851192 0.031412993 0.034220506 0.011694888 -0.06505982 0.049563613 0.04758316 0.0001019562 -0.043213725
see -0.033398405 0.016002905 -0.018226169 0.0075690574 -0.02319456 0.030009873 0.077362865 0.034991216 -0.012758298 0.041833784 0.11729675 0.024996072 0.0007302957 -0.05362423 0.010748821 -0.017895792
their -0.020936625 -0.022266781 0.026587427 0.018554397 -0.06379978 -0.025676204 0.008495458 -0.032304704 -0.012270467 -0.008503814 -0.033863973 0.021246927 0.01903573 0.022294814 0.0343363 -0.05646392
had 0.016453128 -0.013056385 0.022487702 -0.029631762 -0.0017247449 -0.039284475 0.05688856 -0.0028304183 -0.03415132 -0.046265643 -0.014117649 -0.002097389 -0.03394091 -0.044818837 -0.038156725 0.008796722
can -0.045519248 -0.019519163 0.045761794 -0.00456221 -0.011219091 -0.023903683 0.04949658 0.05179191 -0.020802423 -0.034511503 0.010328443 0.0027331554 -0.0038081086 0.025996843 0.028685367 0.0071462938
were 0.05254223 -0.027582655 0.045165773 0.06448882 0.038454942 0.009643852 -0.032181513 -0.054687448 -0.008421526 7.101044e-05 0.06649523 0.018144798 0.064668655 0.021384781 -0.007815512 0.02254535
me -0.022366121 0.037259147 0.022505712 0.05362346 -0.07125255 -0.025019765 -0.04097598 -0.055216875 0.02449381 0.004785734 0.06413566 -0.044911377 -0.01759417 -0.014324423 -0.066603675 0.027537856
well -0.0416976 -0.047678303 0.013865919 0.08051789 -0.0074659493 0.06319174 -0.08119662 0.054967966 0.007474507 -0.07529937 0.018874794 0.05411139 0.057264145 -0.04204967 -0.024698682 -0.025208015
than -0.060112305 0.056471944 -0.03565909 -0.011434877 -0.073799886 -0.033733405 -0.053104855 -0.00049083884 -0.06093102 -0.02951664 0.0048604375 -0.01173215 0.029227022 0.026045175 -0.06888853 0.038899772
we -0.04887825 -0.012647891 -0.015333477 -0.037659675 -0.01476695 0.0005697737 0.026196498 -0.017879814 0.002283513 -0.030281393 0.028852826 0.0012900509 -0.05152328 0.0063202656 -0.02230161 -0.021840619
much -0.04068588 -0.0030975838 -0.05272654 -0.060400892 0.012443865 -0.012920797 -0.016708406 -0.018550819 0.010864648 0.027817039 -0.011844024 -0.064239666 0.028034182 0.05332561 0.012098903 0.012671423
been -0.021839574 -0.033483997 -0.05262772 0.024981054 0.033720933 -0.021061577 0.03085335 -0.0076788138 -0.03091039 0.052679166 0.020382358 -0.01844298 0.0004600718 0.055214737 0.013864551 0.010733801
bad 0.023620095 -0.051941946 -0.100935906 0.026891015 -0.029525729 -0.09795777 0.011223767 -0.05250911 -0.088761985 -0.011148123 0.023579676 -0.019447953 -0.020425497 0.06887873 -0.00832253 0.08344278
get 0.027110545 0.0012329688 0.056671698 -0.045378376 -0.010885056 -0.04024684 -0.039643772 0.026120735 0.030515216 0.039442778 -0.021134593 0.018383967 0.009701479 -0.046288393 0.022948273 0.05762688
will -0.027038982 0.006138581 0.0011906 -0.054236423 0.0118576605 0.023513637 0.027173914 0.008431518 0.013098531 0.0072027394 0.05219745 0.016078183 -0.011389561 -0.014866784 -0.0003920289 -0.03306669
do -0.0071257716 0.02161148 -0.050578944 0.012556885 -0.09097086 0.006756614 0.051952068 0.024378072 0.00012845676 0.014079829 0.037056673 -0.057921004 -0.04874111 0.048972003 -0.0008029296 -0.042010292
also -0.024723006 0.014424858 0.04280742 -0.04509814 -0.025596734 0.016548747 0.02183885 0.036459334 0.077993035 -0.043307617 0.050063692 0.033077314 0.0011342333 0.0067033395 -0.018838095 -0.0394364
into 0.01100862 -0.039128162 0.011145389 -0.011703758 -0.047565855 0.0013452317 0.015952324 0.056939337 0.036667187 0.006550497 0.06732759 -0.00764775 0.044376865 0.017327752 -0.027353423 -0.009418416
people 0.05445614 0.018569069 0.016237726 0.015241869 0.0056875497 -0.037456967 -0.028378291 -0.02306882 0.026957953 -0.045453332 -0.008751909 0.00023221572 0.003171755 0.002310172 -0.04444759 0.00092555356
other 0.016879316 0.02463099 -0.029599981 -0.046009064 0.02594631 0.04477133 0.018475102 -0.006785788 0.04238144 0.031896617 -0.0005435442 -0.011855498 0.043357693 -0.059795573 0.032437764 0.03306153
first 0.03310653 0.04054609 -0.030134689 0.015362875 -0.0629039 -0.010782882 -0.0034156332 -0.009663013 0.0038927929 -0.0007096691 0.051384773 0.049061276 -0.037560623 -0.05874875 -0.005061694 -0.059885252
great -0.079303056 -0.01808336 0.0046852613 -0.058183882 -0.07086077 0.07596375 0.040561847 0.073494025 0.0593031 -0.113948815 0.048618227 0.057942543 0.05097348 -0.09878734 -0.08168023 -0.042633865
because 0.031948056 -0.0302299 0.026151836 -0.006171864 0.06646392 0.045166936 0.0077153337 -0.045624565 -0.043785967 -0.032650977 -0.008443064 -0.03765391 0.0010776727 -0.015982226 -0.031019963 -0.038104303
how 0.046173766 -0.050322786 0.032752052 -0.030477058 -0.10253743 -0.044871658 0.015410042 -0.041479595 0.001142406 -0.030863278 0.005496798 0.029823963 -0.00072656723 0.003504096 0.010866115 -0.020130415
him -0.02128936 -0.0075636674 0.018884832 0.0042035226 -0.048349738 0.03763364 -0.021081962 -0.021655535 0.008490037 0.022242941 -0.0026628617 -0.01978044 0.013861421 -0.049870342 0.0062583946 0.021716516
most -0.04198002 0.012785997 0.060619846 0.03453403 -0.118870415 0.0778641 -0.03845158 -0.015345326 0.015530683 -0.00204837 0.08616964 0.07877104 0.02908972 -0.016662534 -0.02137866 -0.010909066
don't 0.0179905 0.045445725 0.022115096 0.022865143 0.0071610007 0.018676382 0.023336168 -0.027580893 -0.040729076 0.016896078 0.0025655052 0.013753946 -0.046502184 -0.0077801878 -0.007828996 0.0425079
made 0.01565914 -0.029594079 -0.0005703983 -0.02033177 -0.040067278 -0.01376167 0.06708749 0.056503102 -0.0048768413 -0.026575968 -0.009643009 -0.035430614 0.06013693 0.0024533123 -0.06830217 0.028189603
its -0.0040683495 0.00074206234 -0.056999482 0.03342462 -0.08251248 0.04760686 -0.026536029 0.031024676 0.044781774 0.020118479 0.08750445 -0.0051354263 -0.001088162 -0.012765899 -0.019789055 0.0495092
then 0.04296981 0.026580494 -0.043309987 0.04469486 0.049917452 0.029674402 0.009620387 0.005192416 -0.06693991 0.015936727 -0.01999257 -0.0550758 -0.01596802 0.018757304 -0.00621883 0.030775098
way 0.0063239606 0.021117358 0.036069896 -0.00950625 0.009100692 0.0053096246 0.020445911 0.019235328 0.036197223 -0.0040394813 -0.039846428 0.05594458 -0.03392785 0.017363558 -0.019134087 -0.040732842
make 0.0252126 -0.011971333 0.030206366 0.024481332 -0.1022792 -0.08467995 0.00042728856 0.010574017 -0.008231141 0.08657204 0.089526415 0.022948924 -0.0019239538 0.062216368 -0.06626293 0.06787224
them -0.018243466 0.042841535 0.04535136 -0.00031652584 0.079033665 -0.026594473 0.04199875 0.027781429 -0.0081771705 -0.017445832 -0.054737587 0.020418534 0.05118041 0.00062306994 -0.0153850475 -0.035537943
too -0.0418547 0.026864015 0.042923275 -0.025209278 -0.0017749749 -0.046523113 -0.013584792 0.00624043 -0.072765425 -0.032604583 0.013298071 -0.008109321 -0.04280462 -0.031323392 0.07576646 -0.032405477
could 0.031119298 0.011425403 -0.08493833 -0.040928774 -0.00853916 0.0033209755 0.048722804 -0.033719566 -0.017893849 0.051177204 -0.023414811 0.003758665 -0.014869275 0.030554414 0.055438038 -0.03579418
any -0.023453446 0.005125351 -0.06490943 -0.017012948 -0.04440749 -0.07868689 0.09068773 -0.05237141 -0.044913296 0.054306764 0.0016059491 0.016525062 0.089587964 0.06951789 0.061990462 -0.055033952
movies -0.03560071 0.027679821 -0.043016057 0.023826467 0.08258747 -0.0111850165 -0.033515923 0.027357724 -0.02734736 0.047024008 0.00035015374 0.035488956 -0.03996608 -0.015812796 0.018609364 -0.031292066
after 0.01626833 0.04769403 0.08183059 -0.039344918 -0.025902566 -0.02061312 -0.003159456 -0.0043212986 0.027038392 -0.046965208 -0.060046088 0.030522913 0.02258101 -0.017825147 -0.018496718 -0.008974259
think -0.027794285 0.0029312293 0.02949295 0.021656742 -0.008297509 0.0101149725 0.03197656 0.03704543 0.054359473 0.027385933 0.023306422 -0.01578222 -0.015946774 -0.055208698 -0.03069434 -0.027230768
characters 0.01499435 -0.02480398 0.031749494 -0.005587206 -0.20408484 -0.058543842 0.068786666 0.007200615 -0.05418986 0.0071233134 0.08475779 -0.042349253 0.01570096 -0.018659744 -0.018253215 -0.013279388
watch -0.020674821 -0.03517065 -0.037376076 0.030281294 0.004468426 -0.02871163 -0.021571215 0.019793997 0.0072285025 0.022236941 -0.0031172174 -0.00078937534 0.017493036 -0.0065619014 0.011905499 -0.0014289527
two 0.025980812 0.017676732 -0.044367403 -0.043815684 -0.0494529 0.024427408 0.04072275 0.017910615 0.03488322 -0.008763508 0.0155204795 -0.009674705 0.01869364 -0.05646009 0.0037932175 0.029987717
films -0.04062862 0.0062973117 0.04443111 -0.011870717 -0.059761465 -0.013642563 0.04732698 -0.016625391 0.0048044915 0.018650847 0.010834639 0.028668065 -0.058577586 -0.035189357 0.01935744 0.03837699
character 0.009290973 0.0045650536 -0.01552945 -0.025471296 -0.104351304 -0.01394232 -0.015472533 -0.026755044 -0.020495776 -0.027064983 0.0629246 0.038407028 0.02397253 -0.010064957 0.010854201 0.017389897
seen 0.008703974 0.028226862 0.05247116 0.017447108 -0.0797287 0.026531646 0.039358035 0.019680178 0.04221553 0.025477406 0.08882881 0.01637708 -0.01618332 0.0004182645 -0.055101354 0.015546057
many -0.053894747 -0.014420558 -0.018196428 0.026783051 0.0045716083 0.034958325 -0.048832756 0.018755099 0.021841941 0.0234592 -0.0022250868 -0.022375006 -0.05564011 -0.039642733 -0.06917808 -0.04955122
being 0.040361177 0.024238525 0.030473439 -0.017200211 -0.054551028 0.006229685 0.02960466 -0.045875862 0.06063603 0.028310407 0.050300207 -0.01427088 0.0029488644 -0.01863907 0.015494804 -0.04978734
life -0.07355193 -0.040865943 -0.021805592 -0.0233303 0.042917345 0.058196396 0.05304497 0.026417123 0.041250046 -0.070371024 -0.006855773 -0.0005379952 -0.053144388 -0.06887466 -0.043242283 -0.02482074
plot -0.028735822 0.030319983 0.02625899 -0.004892195 -0.15163635 -0.10812823 0.004317982 -0.044760432 -0.037414707 0.10234479 0.05034159 -0.007971765 -0.030247705 0.026228243 -0.04109458 -0.027130097
never -0.037022952 -0.028487353 0.037707835 -0.05568173 0.06410306 0.016732613 0.05870111 -0.02349785 0.032736514 -0.006911824 -0.052115794 -0.0122686345 0.07158064 0.0118433 0.019542476 -0.038413238
acting -0.016823512 -0.012079332 0.034835678 -0.09179344 -0.0883988 -0.07949899 0.03638108 -0.050927777 0.0010261346 -0.03038611 0.016526755 0.023075083 -0.05092686 0.0866041 -0.008481447 0.06746686
little 0.03825577 0.043238644 -0.04993716 -0.010171051 0.08927398 -0.03740126 -0.01902595 0.03394569 0.065657236 -0.024855057 -0.08484128 0.065447085 0.023716401 -0.01524689 0.05346912 -0.052490823
best -0.03837379 -0.005429124 0.06385484 -0.0032493412 -0.06642913 0.090395354 -0.024440276 0.03337528 0.08937102 -0.04692956 0.049213108 0.035834197 0.036815196 -0.10011967 -0.041597717 -0.030582407
love -0.05422604 -0.0055833696 0.015935253 -0.010652782 -0.031006798 0.06472205 0.012024429 0.01140641 0.056141037 -0.036321018 0.019746078 0.057613913 0.0053846207 -0.029294359 -0.011361706 -0.027875936
over 0.0038443992 0.0756557 -0.040666353 -0.042430405 0.035592802 0.018407654 0.019700151 -0.015980668 -0.037993364 0.037350222 -0.04914306 0.03979652 -0.03799231 0.06116935 -0.008937527 -0.011708477
where 0.028161746 -0.0010054341 0.028509073 -0.048362568 0.05540905 -0.014167269 -0.048298243 0.030422347 -0.0059941513 0.013312731 -0.07494434 -0.03859166 0.012590451 0.013221738 -0.0039088996 -0.009941952
did 0.049972977 0.008924879 -0.019197753 -0.028341014 -0.08994534 -0.023809647 0.0066021043 -0.0066979425 -0.006566099 0.015756061 0.06599424 -0.044196103 -0.018691698 0.011200639 -0.01856955 0.051250838
show -0.021521317 -0.00416919 -0.009633951 -0.014159749 -0.016542116 -0.010386363 -0.025955886 -0.0036244194 0.025224265 -0.018498516 0.013340769 -0.035858452 0.034407996 0.018035391 0.012919471 0.01862955
know -0.0414856 -0.030744597 0.010315656 0.09002464 0.03960577 0.07911388 -0.037742633 -0.0030949074 -0.011162604 -0.007804608 -0.07795105 0.004775607 0.03929893 -0.06835986 0.018764172 -0.004515053
off 0.0763847 0.035535082 -0.04516285 -0.014298472 -0.107611805 -0.08269812 0.020175543 -0.06554745 -0.0141615765 0.0047647892 -0.00899041 -0.049676016 -0.013250078 0.03861202 -0.06790151 0.013155537
ever 0.017523274 -0.05098335 -0.02485721 -0.056804318 -0.16092283 -0.00982915 -0.010050072 -0.0497652 0.033802446 -0.044777486 0.058139324 -0.04447145 -0.0268024 0.031916026 -0.042197388 -0.037510578
does 0.0013362586 0.0050016306 -0.06085623 -0.044504713 -0.11796742 0.022070298 0.014718033 -0.0061127595 -0.011298501 0.0110011725 0.004510257 -0.025841447 -0.02618181 0.054735765 0.015262817 -0.02488219
better -0.0065030316 0.030251786 0.0378792 0.009211822 -0.0068442337 -0.052274458 -0.05960197 -0.053841084 0.011568365 0.06197681 0.050656214 0.0005931001 0.02395557 0.024771374 0.0138468975 0.020327345
your -0.037185322 -0.032588698 0.06292624 -0.044958465 -0.076098286 0.003522483 0.0075496384 -0.07112844 0.002485095 0.024627354 0.052350655 0.02928559 -0.056370053 -0.034354217 -0.013671698 0.041716963
end -0.007283729 0.018711992 -0.06428502 -0.004650643 0.036000222 -0.037997864 0.04691203 -0.03882245 0.0163172 0.00752726 0.047478184 -0.015627634 0.025479933 -0.008136708 0.011405658 -0.007926347
still -0.04965419 0.02867876 0.032692645 -0.030988859 -0.09272116 0.057209108 0.027511092 0.0020515642 0.0064758984 -0.05147893 0.091576986 0.034957077 0.024390502 -0.04762741 -0.014083363 -0.054066457
man -0.027411537 -0.0076529644 -0.009755209 -0.06304597 -0.05468833 -0.0036528944 -0.013810102 0.025714697 0.026604485 -0.0029314742 0.042141195 -0.03554297 -0.03752507 0.013808677 -0.035920348 -0.014621941
here 0.03257943 0.014705156 -0.008878146 -0.021033688 0.010910534 -0.035687063 -0.023588886 -0.0028061033 -0.054668203 0.012897806 -0.058946356 -0.059505932 -0.02974749 0.032311313 -0.010486641 0.022467515
these 0.04859348 0.015451655 -0.0021548758 -0.0014742443 -0.04803072 -0.073096015 0.05299744 0.019406546 0.033657372 -0.02521092 0.083329536 0.02041502 -0.007971644 -0.04407777 0.012941971 -0.017944746
say 0.017070845 -0.00850775 0.039548427 0.008838273 0.017448006 0.031992756 0.016552357 -0.0003796206 -0.0026570824 -0.05089196 0.05084654 -0.04134979 0.043266807 -0.07548459 -0.07288656 -0.011231593
scene 0.019219123 0.014474492 -0.009292132 0.043627482 -0.082185715 -0.025496542 -0.04207309 0.030909263 0.035087284 -0.002547136 0.11212502 0.015856354 -0.04434096 -0.0026004699 0.0026773599 -0.00070913817
while -0.0021180976 0.026781412 0.03405605 0.004949885 -0.08159951 -0.018770872 -0.010958268 0.017759884 0.028176488 -0.00019936208 0.07718679 0.020776998 -0.05822902 -0.026356017 -0.057707705 -0.023442544
why 0.062000815 -0.026260888 -0.05944893 0.0024279298 -0.032623976 0.015976064 0.022975687 -0.068697646 -0.0035194769 -0.019266875 0.090754904 0.028684214 0.04432048 0.09332189 0.060095813 0.024449022
scenes -0.007939707 -0.036823913 -0.022233147 0.071099915 -0.048940144 -0.009917416 -0.026292043 0.00265816 0.009084603 3.679753e-05 0.040805466 -3.838371e-05 0.023291908 0.04226841 -0.032601498 0.009527797
go 0.05944409 -0.029179538 -0.0021954416 -0.0012032719 0.0034654003 0.0049376492 0.005715258 0.037319247 -0.04666116 0.024310922 -0.010336614 0.036314085 0.04982352 0.036129747 -0.02245861 -0.032950837
such 0.015834318 -0.007152964 0.0013675999 -0.029330505 -0.012251835 -0.054721225 0.028115928 -0.0018068707 -0.016619653 -0.002852793 0.05054497 -0.0618296 -0.063109614 0.058063515 -0.032695472 0.03028767
something 0.06377501 -0.006652018 0.004482104 -0.07327789 0.004326881 -0.058320213 0.018268552 0.038413472 -0.027895754 0.044053853 0.078770176 0.043821733 0.035710443 0.019520313 -0.031628598 0.00862248
through 0.0081935255 -0.005695233 -0.02265968 -0.0077769016 -0.053096686 -0.043166365 0.05565044 -0.019513791 -0.0036555317 0.003400408 0.06077131 -0.052782014 0.0550184 0.041223764 0.0085248 -0.0053288764
should 0.01427409 -0.0095703695 -0.0440215 -0.01766016 -0.09097073 -0.028603846 0.0012532405 -0.015226763 0.012031203 0.048841055 0.008638269 -0.03638769 0.07682615 0.010884528 -0.012833431 -0.0011945553
back -0.017349852 -0.0009104015 -0.012064416 0.0740656 -0.037247673 -0.0028107313 -0.06945791 0.014141766 0.045396436 0.039617307 0.00053774833 -0.0060061635 0.009846231 -0.010236249 -0.00034651352 -0.059967723
i'm -0.016121896 -0.018884582 -0.041362133 0.04860147 -0.0019198039 -0.026806006 0.015603762 -0.029218724 -0.0050741406 0.074319094 0.035804927 -0.03487079 -0.052878525 -0.026977055 0.049802996 -0.01303297
real -0.012345099 0.035078958 -0.02552624 0.008812448 -0.07597777 0.009061768 0.035652984 0.01364255 -0.0029216711 -0.03476836 0.08533911 -0.025585022 -0.021927616 -0.05967601 -0.04550835 -0.017207777
those -0.046049207 -0.009018288 -0.014066334 -0.05519498 0.045400172 0.00794597 -0.009041955 0.016165543 0.03126253 0.028329758 -0.037357 -0.0072279177 -0.005999647 -0.05736035 0.0024277095 0.025939986
watching 0.0023568198 0.080459826 0.017343197 -0.03553266 -0.060726117 0.02804796 -0.016798498 -0.014616351 -0.038311783 0.08749084 0.0070360242 -0.026395926 -0.0020835449 -0.038314838 -0.0516201 -0.024839088
now -0.0044543385 0.0012872929 0.004349217 -0.002312886 0.061973426 0.019849397 0.0043812976 -0.03399132 0.0024624919 -0.040146366 -0.054525476 -0.0026260943 0.039618205 0.039510526 -0.0026250177 -0.024228128
though -0.064935446 -0.003971993 0.013053664 0.08242673 0.055534724 0.04414235 -0.06465453 -0.004427082 0.042146396 -0.09280279 -0.056193795 0.038871396 0.02959711 -0.108089566 -0.02765894 -0.02372422
doesn't 0.052320015 0.04296077 -0.033510856 -0.03751564 0.055729695 -0.017433211 0.026148735 -0.022928474 -0.014843907 0.08192757 0.016350528 -0.03877114 0.0044690077 -0.014734217 -0.006140575 0.06913833
years 0.031324375 0.0064188936 -0.018423662 -0.07001259 0.032890018 -0.0072242096 -0.010506881 0.005530685 -0.005632532 -0.02228515 -0.08720882 -0.047622412 -0.0063968743 0.012224735 0.07976492 0.035765324
old 0.012860435 -0.020530706 0.009561344 0.09843433 0.0009982107 -0.020319521 -0.09299516 0.0776769 -0.005566306 -0.06312235 0.02142815 0.04144667 0.06870077 0.0155321155 -0.07571167 -0.0063795103
thing 0.050974537 -0.027886605 -0.06982579 0.045039654 -0.033871766 -0.099596344 -0.021932552 -0.07758366 -0.10199381 0.023922022 0.023552235 0.027815932 0.034415755 -0.0007098435 -0.021841075 -0.025849706
actors 0.06479842 0.055732667 -0.016748445 0.0016386482 -0.06811498 -0.01977816 0.032885775 0.003952677 0.039088663 0.018205578 0.020741772 0.0041429563 0.04680107 0.05376655 0.047234233 -0.012707275
work -0.02382079 0.0117359795 0.023262642 0.03597233 -0.06911752 -0.01975926 0.013414307 0.036422238 -0.049927007 0.01071333 0.03672772 0.009313397 0.01281611 0.014568266 -0.024256194 -0.016146457
10 -0.043640323 0.062107373 0.041356754 -0.028459689 -0.12898861 0.01950574 0.0064201932 -0.047371376 -0.0042256243 0.015288287 0.096506014 0.022953449 -0.03670603 -0.03887456 -0.038871743 -0.023074279
before -0.049046412 -0.015383223 0.057600334 0.0042872885 -0.00561899 0.033286374 -0.07114903 0.054850902 0.005385708 0.0064873584 6.294713e-05 -0.0050060535 0.0045815064 0.003155396 0.00069438573 0.0060195853
another 0.022369845 -0.005245131 -0.0474464 0.032269776 -0.023624841 0.012702534 0.03605462 -0.03442272 0.04296307 -0.029231483 0.041353896 -0.056436002 -0.010431527 0.020298459 0.044264168 0.033669095
didn't -0.045940198 0.014329087 0.008710865 0.026754925 0.053293128 -0.0010420487 -0.042545132 0.026223022 -0.020715076 0.067727745 -0.021332853 -0.05653006 -0.033637978 0.00586683 -0.025886605 0.035448577
new 0.05562173 -0.009265184 0.0032540346 -0.0355679 0.048575405 -0.01735679 0.04503474 0.00024501054 0.025731228 0.051488563 0.068356186 0.021370478 -0.053651758 0.01319241 0.028773457 0.0005389318
funny -0.07833918 -0.0048629204 -0.004617231 -0.03468011 -0.040946104 0.029797608 0.022216666 -0.029840326 -0.031801276 0.038076125 0.12731582 0.0024295624 0.025961092 -0.009030405 -0.002558342 -0.027267376
nothing 0.07029212 -0.027625201 -0.0893105 -0.01723108 -0.073804446 -0.10208672 0.059684284 -0.01195365 -0.050000798 0.10408425 0.046588477 -0.09895561 -0.038189683 0.09091175 -0.04075539 0.046818193
actually -0.017510427 0.043276556 -0.040655944 -0.017067665 0.030781459 -0.046940777 -0.025666825 0.0017215768 0.0053650825 0.037373986 -0.048012007 -0.044566385 -0.04047353 0.039803058 -0.017210905 -0.014316264
makes -0.022503486 -0.01686128 -0.016136792 -0.028180504 -0.057250783 0.044789746 0.04918192 0.014554165 -0.010578727 0.022081813 0.0635493 0.033772007 -0.024490163 0.012395818 -0.04722351 -0.005961529
director 0.05402272 0.039514836 -0.017075215 0.03322875 -0.1765135 -0.04662495 -0.035182044 -0.07540154 -0.01436511 0.05651772 0.010344137 -0.03805781 0.005169142 0.018794557 0.047008 0.07164108
look -0.030394891 0.010507862 -0.014853953 -0.0810775 0.02390747 -0.053878848 0.07476722 0.0027839264 -0.037721407 -0.008927191 -0.032343913 -0.030959925 0.019273836 0.069324255 0.085319705 0.019927466
find -0.0052414113 -0.006894029 0.008826831 0.054862417 0.03265051 0.020167291 -0.048920803 0.0059254286 -0.008516227 -0.035365894 -0.035795737 0.05356842 0.03017722 -0.06947591 -0.020942228 -0.03584327
going 0.04906728 0.027937844 -0.02062728 -0.018227654 0.0044694412 -0.022031276 -0.07937263 0.014856202 0.034707036 0.024541538 -0.03131448 0.034744456 -0.05656708 -0.041215036 -0.04120155 0.015212475
few -0.019309325 -0.039079003 -0.048756734 -0.03171115 -0.055081826 -0.013952385 0.036038693 -0.016189426 0.0345494 0.060153898 0.018871596 -0.010204377 0.0363763 0.024844404 0.020780127 0.072349876
same -0.050959077 -0.055330865 -0.048528004 0.004199199 0.068480305 -0.017967314 -0.008346513 -0.007301125 -0.042675342 0.007192948 -0.040654015 0.007516808 0.014300969 -0.01431587 0.039700802 -0.019726077
part 0.029989628 0.0073084654 0.050243393 -0.022981782 0.11693897 -0.03259474 -0.07095561 -0.026851665 0.03330003 -0.006388262 -0.01168768 0.027208667 0.047933146 -0.04246104 0.016393203 -0.012948227
again -0.008285943 -0.028213147 0.0038076432 0.0076191896 0.018654427 0.0029713593 -0.006362627 0.029665617 -0.011517329 -0.050416254 -0.02504435 0.039923813 -0.051834904 -0.023834283 0.020900749 -0.010531557
every 0.026392426 0.018388843 -0.028702473 0.029246528 -0.0660468 0.030430937 0.009593616 0.038706444 -0.0157949 0.036733616 0.018613786 0.0017968476 -0.0028195032 -0.05678067 -0.040083252 0.055193283
lot 0.016337408 -0.020899907 0.032897405 0.03020526 -0.055827066 -0.0064720605 -0.06433654 0.06604397 0.048182458 -0.06807735 0.08681777 0.062147543 0.063292265 0.03712308 0.013939171 -0.048105117
cast 0.016527824 -0.021572256 -0.027947525 -0.009152264 -0.08452285 -0.00056742167 0.012914223 0.013680767 0.0023069761 -0.0028425558 0.024682418 0.05154243 -0.020543084 -0.055782106 -0.05388414 -0.004708807
us -0.009727939 -0.010850455 0.0125701185 0.011500977 0.007671309 0.03054643 0.0032367276 0.024166843 -0.013930354 0.017561153 0.017694287 0.020593392 -0.03401078 -0.020608595 -0.022005262 0.026534557
quite -0.015516063 0.018445443 0.018305954 0.012949527 -0.0043734205 -0.011634125 0.00051229214 0.037025418 0.026806526 -0.005135137 0.03456282 0.0151254935 0.047015652 -0.0599897 -0.02449989 -0.056594312
down 0.039365742 -0.021598699 -0.0027310262 0.04946201 -0.004138226 0.048617322 0.03091588 -0.015294938 0.022366762 -0.01171558 0.020469114 -0.041279763 0.025882415 0.033419557 -0.05549922 0.01769763
want -0.05379796 -0.06002544 -0.016660962 -0.053917628 -0.088459134 -0.0636584 0.03655492 -0.042557765 -0.014786361 0.035705015 0.09001277 0.017072076 0.02141509 0.062121373 -0.049260277 -0.013786644
world -0.044898827 -0.017749896 0.0031303214 0.023034295 0.019179989 0.06908047 -0.016667984 0.03635282 0.014337917 -0.0061314953 0.01565176 0.040097997 -0.007650593 -0.05732065 -0.02594713 -0.01115169
things -0.058563035 -0.05325103 0.0709298 -0.022456354 -0.014365926 0.0097784605 0.004215343 0.0017711808 0.05695849 -0.013205108 -0.040131632 0.020917607 0.061108585 -0.029884143 -0.03975431 0.029948262
pretty -0.004122686 -0.005645737 -0.038717177 0.010903281 -4.5983645e-05 -0.005199415 -0.067275465 -0.049873706 -0.06858037 0.03525055 -0.065433644 -0.071815684 0.076455265 0.040198695 0.06207251 0.049782023
young -0.0034621193 0.035806432 -0.026036888 0.00748872 -0.057547938 0.04289526 0.038787887 0.035061795 0.021480553 -0.023760952 0.045538668 0.018802298 -0.018209126 -0.055401303 -0.03564731 -0.02943078
seems 0.0068867337 0.087435946 0.031759966 -0.061724104 0.00732256 -0.07021232 0.050332192 0.015543682 0.03080758 -0.012872209 0.0022493452 0.003795909 0.04441313 0.02557041 0.05409453 0.052666686
around -0.0123001 -0.0072416835 -0.030026695 0.049336854 0.02544689 -0.041527975 -0.0669808 -0.024490936 -0.018342769 0.021831047 0.008949699 0.014489317 0.054661255 -0.027007177 -0.059639897 0.032381628
got -0.03125532 -0.049257368 -0.0098510515 -0.04724757 -0.02697913 -0.012658556 -0.010754761 -0.0004613333 0.07390909 -0.060053065 0.057060473 0.014285536 0.059820075 -0.06041193 -0.06727084 -0.040503178
horror 0.062168844 0.048653644 0.039786484 -0.04270363 0.034472216 -0.02759766 0.0012063228 0.0046833097 0.04848108 0.043939184 0.008308336 0.029039828 -0.030357976 -0.034825988 0.033588666 -0.0023008455
however 0.048749033 0.036616355 -0.046338685 -0.072056994 0.0152075635 0.028828604 0.015907386 0.015151619 -0.048895 0.05803851 -0.04205195 -0.00759905 -0.034876958 0.036818173 -0.02341117 0.014069224
can't 0.051128764 0.06257395 -0.004806351 -0.009973304 -0.048275054 -0.087906376 0.03904692 -0.035669 0.03233133 0.018297369 0.008994812 0.045777462 0.040764786 0.0027353822 0.0067448565 0.06502263
fact 0.037544027 -0.056530338 -0.04284272 0.020765979 0.030659353 0.025101095 -0.049561374 0.01696871 0.018054128 -0.031364765 0.020455832 0.0058898916 0.03989579 0.019122157 -0.059848566 0.05081414
take -0.04350067 0.03749452 0.04078081 0.026862254 0.019675635 0.075980335 -0.005898637 0.0384973 -0.0135761695 -0.058183435 -0.016742144 -0.015140416 0.0142017985 -0.064324595 -0.072004795 0.018222105
big 0.0067205774 -0.025514556 -0.015149766 -0.016756801 -0.05703562 0.021120448 0.025554523 0.030803502 0.0123254955 0.029970327 0.07131827 -0.023351729 -0.03674358 0.025032766 0.0025988712 0.040473767
enough 0.031893943 0.03769689 -0.06301579 -0.055793714 0.043093305 -0.025987575 0.007709377 -0.10341941 -0.03208522 0.07788068 0.014061811 -0.027666949 -0.039716125 -0.0015802034 0.1128339 0.025544453
long -0.0319234 0.012449329 -0.065306045 -0.063525334 0.01538033 -0.002006941 -0.01025336 -0.039429963 0.0250907 0.038677007 -0.038674586 -0.02405718 -0.027415322 -0.020260021 0.006391205 -0.025203539
thought 0.0034493366 -0.041208286 0.088655934 -0.016675854 -0.011210645 -0.013201385 -0.0461922 0.04254673 0.026965851 -0.041631535 -0.019350462 -0.020805027 0.03830035 0.031319983 0.024296394 0.019870594
that's 0.0032489987 0.030311055 0.03209479 -0.023136297 -0.03885426 -0.0015856511 0.0032548367 -0.013430142 -0.06118809 0.063486055 -0.006273961 -0.017869746 0.034749005 -0.0067877034 0.023168126 -0.012960073
both -0.05984942 -0.07831459 0.009191602 -0.03327234 -0.14320546 0.0050493465 0.014003778 0.0065213526 0.042309035 -0.014294083 0.09365579 0.026374493 -0.012475256 -0.056277655 -0.07394098 -0.028831461
between 0.018336272 -0.012631035 -0.0029247385 0.005955844 -0.07617298 -0.013435533 0.061136764 0.024661575 -0.06920414 0.06406054 0.092758425 -0.04981257 -0.032400183 0.04043697 -0.04537702 0.01900035
series 0.015115836 0.030852513 -0.02594828 0.010410731 -0.049525145 0.040797606 -0.046277262 0.05292692 0.028357133 -0.025112417 0.037337497 0.010991404 -0.020520171 -0.01117475 -0.028773038 -0.0099055795
give -0.016720759 -0.032248225 -0.040535294 -0.0145679675 -0.023396572 0.016548168 -0.0022726709 0.021329567 -0.040006723 -0.027791804 0.017267259 -0.04847685 0.006126518 0.014574674 0.03870489 0.09153467
may -0.03466931 -0.006684109 0.06307198 0.012424846 -0.018067028 0.0320176 0.02283507 0.014984142 0.06833851 -0.0015647807 -0.016394643 0.084106535 0.037382 -0.041638125 0.0036204052 -0.030127412
original 0.0059144823 0.024593277 -0.044514798 -0.0040876535 -0.09233802 -0.05278928 -0.030992428 -0.06372193 -0.06431971 0.04556934 0.11252648 0.0031577612 -0.052359078 0.0012245906 -0.019883836 -0.022937516
own -0.023283646 -0.039059322 0.009188003 0.04407758 -0.013569742 0.012785598 0.049388688 0.025281936 0.019096639 -0.011413563 0.023703665 0.05037088 -0.023223702 0.004230606 -0.031575695 -0.033239685
action -0.013336132 -0.023282213 -0.06182173 0.0067012873 -0.024935244 -0.04293919 0.012912225 -0.017846297 0.03865906 0.032743968 -0.011729013 0.044870093 0.036712166 -0.028442997 0.039746087 -0.07146091
i've 0.0076522334 -0.038495183 -0.024767175 0.04193002 -0.07031375 -0.023941755 0.027631931 -0.06165019 0.058637924 0.0016100574 0.032878764 0.009873285 0.073002405 0.015394549 -0.045767173 0.019603549
right -0.08109789 -0.002739929 0.00031653533 0.008808448 -0.11664965 -0.008986688 -0.0040090415 0.025323465 0.03878262 -0.04284923 0.05641251 0.014112329 -0.012039863 -0.05157308 0.011130831 -0.009986642
without 0.036654126 -0.05146153 0.046163987 -0.021355549 -0.009415913 0.027380606 0.03724186 0.03993108 0.004939462 0.0137742385 0.022464816 -0.021607565 0.016001744 0.04077252 -0.024741039 -0.06431157
always -0.0042823143 0.02650645 0.03982484 0.024285134 -0.06408347 0.008828291 -0.033513606 0.02692401 0.06809672 -0.0054562623 0.044530887 0.06960844 0.007194658 0.009823335 -0.031329498 -0.0039318143
times -0.041899703 -0.045844946 0.0039618537 -0.002722199 0.0042856974 0.044229224 -0.01740796 0.045016285 0.023219563 -0.028242303 0.043278147 0.009806137 0.0048754127 -0.05322292 -0.07123419 -0.052532993
comedy 0.021347288 -0.02366772 0.014032219 0.004427111 -0.09478919 -0.047889862 0.022726225 0.050368078 0.041197717 -0.004038231 0.039054204 0.035688855 -0.058954872 -0.07471299 0.00893962 0.017686717
point 0.045189723 0.06222474 -0.0093721105 -0.04660722 -0.09136828 0.032443352 -0.028783903 -0.009643325 -0.029984483 0.037907902 0.036845736 -0.032959912 -0.033413183 0.040669207 -0.04273739 0.03592104
gets 0.010864077 0.013003387 0.028448734 -0.023855861 -0.051324446 -0.013931408 -0.07477448 0.02042367 0.0023811606 0.028037613 -0.02190015 -0.017129833 0.005412863 -0.031715617 0.0020208454 0.010267347
must 0.022145512 0.015235387 -0.003388568 0.011654583 -0.03386181 0.042969912 -0.054000843 0.016482722 -0.016771538 -0.06744202 0.023762854 0.011093572 -0.024169942 -0.020383414 -0.059832416 -0.010782071
come 0.024874084 0.06491001 -0.026098432 0.04993269 0.11855862 -0.013246443 -0.051284626 0.016050784 0.00026287208 -0.036508773 -0.0871238 0.0070129884 -0.041268118 -0.022085324 0.039680663 0.043177415
role 0.007246314 -0.00036454923 -0.015293967 -0.015814282 0.03649153 0.017545877 -0.0020808382 -0.01898408 0.025721125 -0.03695987 0.0015013436 -0.02032154 -0.02709824 -0.040313266 -0.042314347 -0.013342941
isn't 0.0044528507 -0.048184305 0.008937994 0.011310104 -0.07271524 7.925625e-05 0.01396001 -0.07243314 -0.020194046 -0.016536245 -0.02036518 0.058686767 -0.014825461 -0.0059292107 -0.02195069 0.0015253375
saw -0.03263285 0.055753894 0.0024103317 -0.057562288 0.07906951 -0.022709928 0.07516885 0.01393133 -0.05016879 0.032876052 -0.004349397 0.0162333 -0.0021732608 0.0052592345 0.018828988 0.042992435
almost -0.03905401 0.016914088 0.0016857948 -0.023139007 -0.086302534 0.041797373 0.024036344 -0.037227288 -0.037970636 0.038401585 0.013485273 -0.037263803 0.04013517 -0.035164367 -0.031298548 -0.013285442
interesting 0.006552218 -0.0027490899 -0.019255757 0.012017015 0.09338395 -0.07091314 0.010551146 -0.03135787 0.0068634893 0.026751159 -0.08524803 -0.033828586 -0.026385903 0.04977953 -0.0020064048 -0.05423405
least 0.04373103 0.058683094 -0.031733073 -0.061346658 0.032560974 -0.05282537 0.07263455 -0.08236915 -0.027811397 0.0020928099 0.019718168 -0.034658946 -0.041203924 0.052914817 0.017100498 0.02513245
family -0.03135317 0.06730204 -0.017120514 -0.030752273 -0.053934135 0.0043985834 -0.025069209 0.014630572 0.006485957 -0.07731813 0.051626332 0.026344698 0.032067277 -0.027178304 -0.069204606 -0.0103742825
done 0.057388935 -0.020623054 -0.022667686 0.07716411 -0.0018815607 -0.018732859 -0.05308936 -0.02637753 -0.029139722 0.045247592 -0.06260683 -0.026454251 0.025485724 0.018160274 -0.05280501 -0.036511566
there's 0.037144445 0.022077953 0.04241916 0.021552956 0.017704017 -0.048050478 0.029043086 0.0050025806 0.01788819 0.07872638 0.039274734 0.03671264 0.029398879 -0.0146882795 0.058907222 -0.00021573713
whole 0.03307902 0.04505952 0.01556067 -0.023173854 0.024775084 -0.00092867657 -0.024726035 -0.050156206 -0.003655032 0.093130976 -0.043427665 -0.07790928 0.02961064 -0.008213405 -0.017065758 0.012785206
bit -0.0924827 -0.042774826 0.055018418 0.0286926 0.021339295 0.031004392 -0.0067849853 0.08101154 0.039282788 -0.015071875 -0.06427547 0.052634012 0.041477427 -0.020791378 -0.049224537 -0.014436031
music -0.027820872 -0.0068179145 -0.02021577 0.030197112 -0.03245773 0.03702356 -0.036808584 -0.032802504 -0.026737409 -0.009606565 0.023315018 0.043071482 -0.035080917 0.018168993 -0.017468382 0.042741656
script 0.07392868 -0.062311772 -0.062823236 -0.06341814 0.060316306 -0.05003998 0.036611065 -0.05753403 -0.08619222 0.08349819 0.056900263 0.060556643 0.06292361 0.022934766 0.07831102 0.054916773
far 0.031228125 0.04511272 -0.036904603 -0.045528572 -0.034783874 0.009055434 -0.018155575 -0.044754665 -0.00956338 -0.013236192 0.025854038 -0.052776087 -0.00363135 0.009294511 -0.04365301 -0.000874676
making 0.06234153 -0.0002892785 -0.074741066 0.01032714 0.07274732 -0.014439515 0.04948928 -0.01231072 -0.072742686 0.08827704 0.013489436 0.022794615 0.02242769 -0.0035430589 0.066626586 -0.009786051
guy 0.0274578 0.007244771 0.025097592 0.04793233 0.084441304 0.013699076 0.030969342 -0.05349977 0.010951173 -0.030062081 -0.03776259 -0.008014652 -0.07705593 -0.022327915 0.0009617701 -0.02119125
anything 0.014692373 -0.03670539 -0.054707993 -0.0039448813 0.0005317797 -0.009057293 -0.03971824 -0.015933257 -0.011693639 0.05151269 0.06568335 -0.052896075 -0.02825663 -0.0016210491 -0.01927388 0.051632434
minutes 0.08136995 -0.012812425 -0.08238324 0.03520159 0.004101358 0.00041642372 -0.006605013 -0.023120286 -0.05802168 0.06631456 -0.019957002 -0.04767206 0.047551494 0.012613077 0.08602272 0.07096869
feel -0.0029480327 -0.015573042 0.0029083868 0.06682391 -0.05403292 0.046849765 -0.029474668 0.06369029 0.09322784 -0.040040925 0.0021938854 0.11835865 0.009063837 -0.008277847 -0.096171126 -0.07896834
last -0.03939884 0.020929711 0.048834965 -0.024893202 -0.08024818 -0.014201363 -0.034618985 -0.010556187 0.047899704 -0.0109708505 0.018062143 -0.0023708928 0.023259463 -0.010106062 -0.036810864 0.0011764563
since -0.08069856 0.031770494 -0.04469453 0.011291012 -0.03831039 0.02757308 -0.10233377 0.0850499 0.05628772 -0.052495066 -0.0023402397 0.0433339 0.04114902 -0.04828786 -0.03125469 -0.04170661
might 0.0007462184 0.029047078 -0.06970889 -0.025616955 -0.029424718 -0.08862262 0.0014561072 -0.02091464 -0.0853131 0.07778228 0.050233625 -0.023065504 -0.049393795 0.007361674 0.0035111294 0.046725262
performance 0.030239943 0.044967227 -0.02929311 -0.0036718259 -0.07288334 0.01827833 0.037353057 -0.022527441 0.013232514 -0.0018495434 0.10214607 0.03191807 -0.03263541 -0.007822989 -0.039870646 0.024197783
he's -0.0007728864 -0.04495854 0.0005256578 0.045496415 -0.038230114 0.02794706 0.02878415 -0.0014871805 0.02242621 0.0034109375 0.0758748 -0.016751422 0.037285995 -0.013208352 -0.055491045 0.04353148
2 0.028851235 0.018703088 0.036854845 -0.03223009 -0.038017157 -0.056203224 0.01358105 -0.020998325 -0.013721062 -0.023795381 0.006841455 -0.065923095 -0.061023712 0.012508081 -0.025157798 0.08212782
probably -0.020177616 -0.087639675 0.033777468 0.06828479 -0.023055203 0.011852351 -0.0349856 -0.023673993 -0.015712542 -0.007982706 0.039651036 0.020122673 -0.060958996 0.061447762 0.05674886 -0.024517512
kind -0.045087244 0.014025501 0.002485467 0.05088402 -0.01264816 -0.03596969 -0.031413384 -0.018953485 0.05478737 -0.009186203 0.005196428 -0.021896841 -0.02672114 0.043979723 0.049139667 0.06641329
am 0.02866696 0.05581728 0.024392735 0.0025370247 0.05962539 0.019134974 0.022239033 -0.03483563 0.009364739 0.0561748 -0.06591327 0.02421493 -0.025276942 -0.03399586 0.0719712 0.042672273
away -0.0065123583 0.010825355 -0.0050147003 -0.03383516 0.027932981 0.040535107 -0.07045656 0.014471199 0.01991378 -0.010666991 0.05556362 0.042603426 -0.03132722 0.0048260405 0.017549071 0.024117034
yet -0.0050876685 -0.043230403 0.027903197 0.0048494823 -0.04573265 0.00018800942 -0.084174685 0.08282503 0.03779881 -0.054746643 0.014247807 0.009663478 0.014844515 -0.022374604 -0.033475865 -0.055627603
rather -0.016764848 -0.027605608 0.025947077 0.031413946 0.009663085 0.023072353 0.009700241 -0.019933106 -0.0052651986 -0.024332838 -0.051794067 -0.01518291 -0.00478928 -0.023136012 0.029879274 0.050492723
tv -0.010858586 0.029564053 -0.029716462 -0.023635408 0.11467404 0.049857527 -0.05343332 -0.004668528 0.022435965 0.019177897 -0.047375757 -0.040674258 0.060435664 0.041443527 -0.006418146 -0.0064258464
worst 0.058701444 0.050674424 -0.11355475 -0.07920931 0.013645816 -0.1729528 0.021844987 -0.106625475 -0.16699992 0.08188714 0.029713767 -0.024829028 -0.059629183 0.113977365 0.11215494 0.07362069
girl 0.0039104875 -0.007078022 -0.038435344 0.02512782 0.08421224 0.02502669 -0.021650935 0.019122342 -0.031380247 0.053139403 -0.1003816 0.036354862 -0.001556152 0.031041814 0.10053275 0.0018754101
day -0.09178027 0.013957486 0.0770341 0.04491302 -0.03369637 0.05105238 -0.02797522 -0.014121561 0.025068417 -0.011761051 -0.029818248 0.018535612 0.047761105 -0.06525594 -0.0051769256 -0.048963238
sure 0.039761905 -0.029983995 0.044213787 -0.022902178 -0.013082868 0.044832014 0.071575545 -0.03790965 0.018073494 0.014992033 0.021320254 0.04506176 -0.019153353 -0.009608439 -0.03261373 -0.0508127
fun -0.098312974 0.017289205 0.056131028 0.10041033 -0.014512307 0.09161745 -0.016505945 0.015601803 0.025072547 -0.020319222 -0.02429689 0.03656087 0.05683664 -0.076990515 -0.030656949 -0.052271884
hard 0.021877754 -0.030810887 0.022632342 0.0175988 0.11847487 0.04965304 -0.0033980003 0.004565317 0.007723728 0.016177066 -0.11122958 -0.025870068 0.018241124 0.032668635 -0.03381608 -0.009992098
woman -0.037231404 0.015235116 -0.011851786 0.053121366 0.09275207 -0.059628494 -0.008804124 0.030122548 0.018585894 -0.021716751 -0.0009275331 0.035812438 -0.088834524 0.037711903 -0.010645257 -0.037584636
played -0.07004105 0.0032342416 0.034153208 0.047722686 0.008654913 0.017996121 -0.018067693 -0.003994731 0.029273136 -0.057896275 -0.035684343 0.0047936062 -0.028918408 -0.059749596 0.0029404121 -0.015292787
each -0.08661313 -0.054953046 0.005253575 0.022948379 -0.07381638 0.059120152 0.01395098 0.064450294 0.07232986 -0.057979777 0.09007211 0.064586066 0.020006754 0.023810282 -0.025289744 -0.008036106
found -0.020450754 0.05265201 0.008812359 -0.0070294663 -0.053747427 -0.013876677 0.009686382 -0.034768336 -0.037082877 -0.042070948 0.039662834 -0.027391138 0.015538089 -0.009569333 -0.019131208 -0.027649144
anyone 0.021369064 -0.022691963 0.030200865 -0.005099131 -0.046738487 0.025650632 0.037071783 -0.03373809 -0.012940124 0.0032736615 0.038049597 -0.029607192 -0.00034617505 -0.0052438052 0.010698964 0.018724846
having -0.021078657 -0.027985346 0.05092657 0.08565774 -0.025651034 -0.006191817 -0.047131103 0.035977695 0.07203445 -0.008746155 -0.0062720836 0.055082094 -0.014155876 -0.09335087 -0.039767392 -0.022867246
although -0.06854188 -0.03319055 -0.00065251585 0.05452531 0.030778654 -0.030569186 -0.020875648 0.049330104 0.044119075 -0.012224716 -0.015288613 0.047979344 -0.03347512 -0.04272168 0.0053178696 -0.0017112812
especially 0.009865244 0.042115476 -0.0028928788 0.0027955282 -0.04083195 0.039510835 -0.044642292 0.045955542 -0.03975831 0.025645413 -0.05679523 0.021690581 -0.019231897 -0.040709756 0.012617292 -0.0020724155
our -0.008568298 -0.030831927 0.080094464 -0.020357858 -0.08741325 0.09104684 0.012359686 0.057541743 0.028655326 -0.0487928 0.0437094 0.05456077 0.011572458 -0.029815575 -0.03355595 -0.0024162256
believe 0.0011640737 -0.037741043 0.040322885 0.008519481 -0.010999339 0.04910609 -0.013851057 -0.029242957 -0.03890853 0.035292342 0.013739165 -0.066304505 0.0023406162 -0.034691405 -0.029986365 0.013031669
course -0.07864589 -0.008276562 0.010698179 0.055156454 0.0018532125 -0.0095579885 -0.030082915 0.05442357 0.030656168 -0.015609208 -0.028893616 0.01082782 -0.0384001 -0.0039047683 -0.05894716 0.0044485647
comes -0.025637386 -0.036785662 0.011122174 -0.036768604 -0.07307315 0.010883328 0.04490257 0.0044200835 -0.011470669 -0.042809747 0.044135377 0.033487216 0.038483713 -0.064623006 -0.03630696 -0.067329265
looking 0.017386656 0.029770907 -0.08630927 0.006167697 0.08644379 -0.039859246 0.03092651 0.019059379 0.012218223 0.025756959 0.0008281036 0.027348239 -0.060507216 -0.0014503154 0.06938012 0.051869627
screen -0.029709252 -0.055170838 -0.008658491 0.09530672 -0.04221753 0.08322491 -0.079300575 0.06308539 0.04363418 0.028353453 -0.047011353 0.041974198 0.0041867653 -0.049731273 0.01459558 -0.02415744
trying 0.06620048 -0.027826708 0.02905246 0.06745264 0.051949892 0.020068541 -0.08079038 0.00029367843 0.0040585618 0.04159013 0.028383926 -0.007645734 -0.043554567 0.066905916 -0.023151752 0.07771759
set 0.02028878 0.039745342 -0.012427835 0.02323556 0.013984976 0.014148119 -0.016309733 0.0317689 0.010178866 -0.041077774 -0.07957478 0.010570598 -0.044673923 0.06298064 0.050296724 0.01307875
goes 0.04014275 0.028354814 0.0074368683 0.0006329723 0.0650218 -0.051967412 0.017843276 -0.055245433 -0.04449743 -0.03675189 -0.054295294 0.027256707 -0.08042392 0.024615157 0.008422523 0.024318533
looks 0.033901323 0.04979496 -0.017951084 0.02416079 -0.06321945 -0.03989705 -0.0021261908 -0.024225574 -0.12118119 0.044466984 0.029743068 -0.019659702 -0.038797766 0.068946205 0.020140871 0.026818585
place 0.024884073 0.038815074 -0.081358746 0.021578725 0.012809073 -0.032888804 0.025564067 -0.025385922 -0.013673285 0.055672213 -0.046254557 -0.054073054 0.021667348 -0.008733278 0.114230745 0.026184665
book 0.002015052 -0.047388613 -0.047485583 0.036179803 0.016728591 -0.03461434 0.067203246 -0.06549857 0.011848369 0.065536104 -0.052809276 -0.056024313 0.031393927 -0.018779522 0.05433695 0.0031090109
different -0.028350092 -0.013560312 0.034971293 0.022373466 0.062688835 0.04957411 -0.028173836 0.027606498 0.022360552 -0.04898681 -0.049574416 0.046689827 -0.029501209 -0.003568255 -0.020772886 -0.005649381
put 0.031881984 -0.005398123 -0.047543354 -0.026826167 0.07026498 0.05851699 -0.015194461 -0.00810138 0.000867784 -0.05056451 -0.010402728 0.021454006 -0.013883853 0.039747693 0.018175159 0.05992303
ending -0.022889122 -0.036587823 0.028027972 0.0101161115 0.019869467 -0.0029809957 0.017875979 -0.024110705 -0.01045784 -0.02766677 0.05994745 -0.020111172 0.030369068 -0.001308378 0.026886944 0.011787446
money 0.035988856 0.024740592 0.028056508 -0.05689033 0.034499936 -0.057045076 0.04452911 0.0010820476 -0.0061870064 0.0690718 -0.059723083 -0.031274304 -0.01055942 0.023485692 0.01111305 0.07257335
maybe -0.036897752 -0.03837747 -0.08542993 0.0048499084 -0.106534936 -0.028564714 0.022752956 -0.07894649 -0.06471753 0.064935744 0.08954908 0.013006144 0.0716408 -0.031320147 0.040245853 0.0155419875
once 0.012238326 0.00033950136 -0.012213893 0.05061816 -0.007968359 0.001627493 0.03522103 -0.01428643 -0.012279904 -0.037402343 -0.0559316 -0.020641543 -0.048854683 0.02183279 -0.008279105 0.014590329
sense 0.009424811 0.010227141 -0.02809863 -0.07677733 -0.10024466 0.008462757 0.01773705 -0.05629766 -0.032496374 0.036661457 0.055583112 0.024570273 0.014277802 0.014414705 0.060099427 0.018746803
reason -0.005612175 0.07358473 -0.0231605 0.035787035 -0.017601747 -0.058781464 -0.05635609 0.025481185 -0.011066597 0.03646774 -0.024761958 -0.023856051 0.02404646 -0.023777379 0.050993174 -0.024196658
true 0.00602394 -0.038077574 0.044873513 -0.021488667 -0.06505009 0.013736464 -0.044324122 -0.018029334 0.034771122 -0.051937625 -0.026002953 0.07458499 0.042589776 -0.014411461 -0.079428 -0.09414471
actor 0.01704352 -0.02821629 0.00857837 0.01796179 0.059933115 -0.04816299 0.025749711 0.023165924 0.0075534023 0.07570609 0.008699014 -0.06652962 -0.038795125 0.011803819 0.019372303 0.0020127895
everything -0.019587904 0.014512586 0.006274834 -0.030999988 0.035967942 0.04343326 -0.033426374 0.0004797216 0.060318794 -0.027491491 -0.022434857 0.00048444787 0.008802699 0.02342618 0.015721334 -0.03544706
wasn't 0.066042855 0.017110676 -0.012768571 -0.021720568 0.04128395 -0.06139849 0.011988268 -0.0040862053 -0.06811073 -0.019388724 -0.00910871 0.002228994 -0.023533823 0.008485517 0.008865837 0.033802103
shows -0.080236524 -0.049515862 0.04830935 0.048035953 0.03266743 0.087473355 -0.10824247 0.05548475 0.06281123 -0.11654172 -0.10795715 0.07469365 -0.0074546128 -0.041969832 -0.00070510025 -0.029481208
dvd -0.020519469 -0.029267209 -0.027019804 -0.0070611476 -0.08109081 0.03631152 0.00915291 -0.026375026 0.05063839 -0.015666008 0.095460474 0.043336872 -0.005761581 -0.01955847 -0.066144474 -0.021293715
three 0.056593757 0.024110854 -0.055569567 -0.04654505 -0.071929686 0.00055279775 -0.012805583 -0.007813869 0.01292811 0.075327724 0.047836963 -0.044582263 -0.012603241 0.049526103 0.03489592 0.03911533
worth -0.016714515 0.0031108519 0.089634046 0.00398847 -0.058305867 0.041160755 -0.03151642 0.018480254 0.03752624 -0.05314543 0.041668255 -0.0036787586 0.061960753 0.03922869 -0.003963195 -0.04023989
year 0.0013493521 0.0035749897 0.01888275 -0.043003224 -0.06956889 -0.025781695 -0.035535153 0.021532923 0.006973115 0.031912506 0.013786667 -0.039337743 -0.062257882 0.038097784 0.024910443 -0.013306062
job -0.020280514 -0.042305827 -0.0103998855 0.03385201 -0.069787376 -0.0075866277 -0.015350135 0.0009784081 0.019281587 -0.025823183 0.026783716 0.054508552 0.010620593 -0.057780653 -0.07649364 -0.008346972
main 0.04587763 -0.01539774 0.0465707 0.0479791 0.040745854 -0.04069023 -0.012375952 -0.052685283 -0.047786172 0.015937839 0.024003165 0.011453982 -0.02778808 0.026129618 -0.06991401 -0.035418566
someone 0.06082206 0.09043189 -0.07523869 -0.017567327 -0.04169601 -0.034631956 -0.026986288 -0.07030849 -0.0618695 0.038381353 0.09840112 0.013314189 -0.019971043 0.013942943 0.02594728 0.08248487
together -0.09668925 0.023468362 -0.014732582 -0.07018288 -0.15383138 0.10847366 0.07104038 0.06369725 0.039996 -0.041068148 0.07315252 -0.019680735 0.00945803 -0.05658567 -0.072477564 0.0111706
watched 0.027032427 0.014882587 0.0014750479 -0.016632717 -0.058390304 0.0071297963 0.033845704 -0.04868837 -0.01103863 0.00754176 0.0066420333 -0.0330165 -0.07540398 0.023524296 0.008467048 0.058417983
play -0.09828753 -0.024737593 0.046285618 -0.06640324 -0.14156799 -0.009745716 0.022209369 0.0059160623 0.02160721 -0.041765414 0.01974474 0.038737305 -0.02987757 0.020069016 -0.071016274 0.00197972
american -0.040859826 0.0006113687 0.0017155171 0.065827884 -0.02138669 0.061880812 -0.020741418 0.03133621 0.058361147 -0.08159412 -0.033513393 0.082002774 0.08354347 -0.08839894 -0.04861012 -0.05867669
plays 0.005524921 0.047672465 -0.01956833 -0.038823225 -0.028027415 0.010601671 0.022850078 -0.048937134 0.022440687 -0.004318166 0.03283479 -0.005701334 -0.017046807 0.044128228 -0.025424778 0.020399105
1 0.10612246 0.06274937 0.012297939 -0.12219201 -0.10759749 -0.015598485 0.02801561 -0.009788508 -0.08675859 0.058580074 0.10382799 -0.0068012406 -0.014849635 0.0761551 0.07163671 0.13258423
said 0.020749833 -0.03121382 0.07399522 -0.036462463 -0.031378977 -0.011203344 0.018028652 -0.054603107 -0.040880688 0.029522354 -0.040816735 -0.024736602 -0.009012106 0.02936491 0.016095532 0.06985855
effects -0.01205475 -0.07074358 0.08303771 0.10735522 -0.0409949 0.02724029 -0.048735954 -0.006772712 -0.008192674 0.025668599 -0.01816088 -0.030793905 0.0007683612 0.051696282 0.011611387 0.02203821
later -0.0032522825 -0.059992872 0.0010594616 0.051609028 0.0028898618 -0.011662856 0.02936537 0.047727626 0.015386673 -0.01564193 0.028966501 -0.03146257 -0.025946476 -0.029747104 -0.0020762242 0.0030396583
takes -0.031419065 0.01747297 0.0067844624 -0.020378232 -0.07917022 0.061974835 0.026287768 -0.02373664 0.024132064 -0.026076658 0.020208275 -0.018807251 0.028000709 -0.05996041 -0.03972832 -0.048361436
instead 0.036563277 -0.027288632 0.0028249782 0.038365427 -0.09613715 0.037107743 0.0039261417 -0.03638421 0.02405826 0.018698944 -0.0027303707 0.007515324 0.0623408 -0.026531031 -0.030174801 0.08812882
seem 0.034769773 0.043412518 -0.059266806 -0.04521723 -0.035843857 0.0028441246 0.06316105 -0.09655948 0.0051077036 -0.021659965 0.05786037 -0.00024061931 0.011984102 -0.008032913 0.020468513 0.017551443
beautiful -0.02344092 -0.039963227 0.022953767 0.015723089 0.01599941 0.04890754 -0.040880132 0.04906204 0.06368637 0.0016928863 -0.015999928 0.04692759 -0.0016170307 -0.06904777 -0.018726293 -0.068944156
john -0.026481014 -0.013843471 -0.029495345 -0.017620133 0.017948745 0.00066607585 0.03766025 -0.039004065 -0.0024722489 0.007860512 0.023740847 -0.021031626 -0.050980523 0.057386033 -0.036050994 -0.0034730753
himself 0.065814376 -0.013198943 -0.0051684347 -0.004527583 0.02033352 -0.0036712391 -0.03713526 0.049592968 -0.02604533 0.035067897 -0.033609092 0.018083593 0.008759104 -0.025428068 0.04098779 0.0015435752
version -0.039486695 -0.018023593 -0.020027146 -0.026094947 0.017129812 0.036318082 0.020565784 0.035080805 -0.022941817 -0.042727213 0.0055987323 -0.032960426 -0.0019146495 -0.024374649 0.053579353 0.06840192
audience 0.01679554 -0.019684756 -0.0036835272 0.024776127 0.11433156 -0.01794519 -0.009430807 -0.015864983 0.0147136785 -0.0016180566 -0.0703352 -0.056333233 -0.017991109 0.016587967 0.0105213635 0.008956249
high 0.010439432 -0.04432415 0.059152238 -0.034181576 0.013276182 -0.010259011 0.045158245 0.040468838 -0.019429479 -0.015158833 0.042626247 -0.013566707 -0.005403896 0.024768366 0.004724504 -0.041669928
house -0.023549583 0.0035332744 -0.009668386 0.039666045 0.06985434 -0.029036054 -0.010057078 0.047392048 0.01621714 -0.041583184 -0.0068982705 -0.0010554453 0.010042955 0.052020743 -0.005773912 0.021890268
night 0.032186124 -0.0047626565 -0.022861892 0.047967236 0.09376793 0.019912297 -0.05295786 -0.0067627057 0.0462731 0.03521425 -0.11728829 0.05765652 -0.02019969 0.05561487 0.0057131867 -0.001960815
during 0.012154069 -0.034693405 -0.00715406 -0.025675613 0.09786714 -0.03441983 -0.060872972 0.022148022 -0.026454521 0.022111138 -0.05986047 -0.014281214 0.005647082 -5.761951e-05 0.061054036 -0.0054846127
everyone -0.06771471 -0.018407833 0.047211375 -0.018412078 -0.07450018 0.0092453 -0.03717874 0.02130576 0.07567929 0.006751711 0.044146616 0.06782898 0.06443308 -0.03918865 -0.019546334 -0.044246953
left 0.054719716 0.033992644 -0.022289595 -0.0592352 -0.07732066 -0.04112656 0.053865287 -0.022006985 -0.020513214 0.050624266 0.09550155 -0.01642355 -0.012807804 0.020889899 -0.018295383 -0.033735853
special -0.0082348315 -0.04711274 0.06289942 0.05542173 0.06880641 0.022380492 -0.068277545 0.022998877 -0.018060056 0.0062163654 -0.057364177 0.0010622474 -0.0075390367 -0.020612821 -0.06106996 -0.08044942
seeing 0.054303735 -0.006874877 -0.0070188693 0.02317379 -0.008580057 0.010008683 0.034883153 0.04474581 0.025178386 0.009693859 0.024775337 0.022416309 0.012578598 0.02457516 -0.01057206 0.016814174
half 0.0128799565 0.016457526 -0.04757837 0.017631706 -0.027736587 0.031018877 0.03936933 0.031951062 -0.048327424 0.010826011 -0.06180737 -0.033042666 0.000546197 0.07995952 -0.0715633 -0.016207643
excellent -0.08905217 -0.0989512 0.056121808 0.11579645 -0.06394421 0.09745282 -0.14239423 0.07929406 0.11993624 -0.07252225 -0.033823315 0.072117314 0.029577175 -0.12898989 -0.04470944 -0.09071495
wife -0.03879118 -0.0155175375 -0.023738256 0.05836883 0.071257405 0.014492553 -0.06379906 0.029052926 0.04980914 -0.023591056 -0.104513936 -0.016341887 0.01633938 -0.054447502 0.012901617 -0.020809945
star 0.024594802 -0.016100818 0.00047543136 0.0044732173 0.0067714388 -0.0460796 0.0019263946 -0.005194768 -0.02261674 0.0042267228 0.10731672 -0.054549307 -0.04130048 0.08433996 0.07098153 0.016107919
shot -0.0093554715 0.015863243 0.007193963 0.026096752 -0.005907914 0.05048156 -0.022659747 -0.055637203 -0.047899306 -0.04148459 -0.0002931744 -0.0033563925 -0.03039365 -0.0015410461 -0.019878699 -0.04680157
war -0.05962772 -0.03979373 0.023242556 0.0009933402 -0.051844295 0.010764176 -0.024969697 0.04331745 0.03275855 -0.022818377 -0.02907069 -0.007240316 -0.0045027235 -0.059267424 -0.0150027275 -0.0019295483
idea 0.08998159 0.003371298 -0.048086584 -0.034624927 -0.012430596 -0.09100791 0.06004372 0.018406931 -0.041782208 0.008549875 -0.05252104 -0.07685403 -0.0148803415 0.025721977 -0.014636865 0.01431144
nice -0.0009763095 -0.021111533 -0.016792318 0.014946694 0.11975605 0.084663995 -0.028308114 0.01568719 0.01012232 -0.0074543147 -0.14872698 0.0061134156 0.004583142 -0.0070871105 -0.026513336 -0.046488896
black 0.0013710663 0.049853962 -0.011292251 -0.06453571 0.019382894 -0.07504447 0.08172065 0.004320295 -0.06354511 0.0674517 0.07355657 0.0069412133 -0.00617404 0.04560396 0.011636902 -0.022789776
less -0.0007123759 0.030955357 -0.023355959 -0.0010090246 -0.06320921 -0.052749403 -0.04968475 -0.0050425543 -0.011057827 0.06370568 0.021382345 -0.02567212 0.04551003 -0.027527692 0.014734013 -0.021927964
mind -0.038833965 -0.033810593 -0.009738504 0.00018175991 -0.07118493 -0.016422037 0.026819449 0.03180598 -0.00021102483 -0.014926875 0.029362373 0.025465949 -0.018877866 0.017453285 -0.013570875 -0.013312535
simply -0.0061283982 -0.031724382 0.032577768 -0.011134061 -0.03276229 0.0071400157 -0.012666167 0.009840917 -0.037696514 0.049593795 0.08260661 -0.027810242 -0.023067718 0.012768082 -0.06579848 0.024925536
read -0.035515573 -0.04967409 0.051459488 0.02338699 -0.054945495 -0.038581498 -0.053465698 -0.016680596 -0.04352672 -0.008684714 0.10276452 0.05907823 0.015933676 0.020510225 0.0061274446 0.057663515
second -0.052304003 -0.0136552 -0.005662505 0.03321746 -0.032287784 -0.055326346 0.009300387 0.033072088 -0.013266982 0.03822703 0.023504723 0.0046881177 -0.01936155 -0.042088438 0.032230187 0.01601655
else 0.0713088 -0.04486111 -0.0036607157 0.022942526 -0.03452146 0.007084856 -0.035798106 0.020064224 -0.032421738 -0.016588332 0.035239335 -0.067936 -0.050773278 -0.006479577 -0.044675596 0.02777585
you're 0.06873927 0.050810583 -0.01604641 0.023464596 0.014439205 -0.048132654 -0.034658756 0.027658407 -0.036111653 -0.031303428 -0.07339223 -0.031636503 -0.037031732 -0.01835487 -0.0074535348 0.021302983
father 0.0214792 0.016656315 0.012147895 0.007903811 0.053935535 0.051005147 0.0018123954 0.017886013 0.080840535 -0.028014487 -0.04433212 0.01751908 -0.0103650745 -0.083361655 -0.030111043 -0.056313757
fan -0.045406185 -0.04455623 -0.02977532 -0.0425546 -0.020662354 0.031754665 0.034239434 -0.04839314 0.04140539 0.01010794 0.061411235 -0.037321728 -0.028069943 -0.036591776 0.023802878 0.03815821
poor 0.056754306 0.062913045 -0.08514508 -0.0858604 -0.09387265 -0.10130796 0.1071043 -0.064836316 -0.091902785 0.109467335 0.12615429 -0.023880772 -0.051380683 0.042322334 0.13137043 0.06853359
help -0.016622595 -0.024660325 -0.013890358 -0.045421135 -0.057188876 -0.06031334 0.0060411645 -0.053220004 -0.031401694 -0.022089355 0.10021969 0.040491514 0.026967365 0.04804176 -0.0023997177 -0.04202745
completely -0.043385983 -0.02303081 0.05597147 -0.04455051 -0.09409379 -0.008088844 -0.034878537 -0.055367883 0.04688291 -0.02166666 0.0067103417 0.0070377276 0.03979329 -0.015812743 0.00032498143 -0.020447822
death 0.04813189 -0.023359826 -0.035877097 -0.009119064 0.102447525 0.009145152 0.0034620205 0.024464041 -0.011386844 0.009181272 -0.06977882 0.03404076 0.022579018 -0.032525335 -0.055781916 0.058406662
3 0.09396215 0.040041424 -0.02679463 -0.089544944 -0.022256449 -0.026196219 -0.027006479 -0.08930885 -0.01652288 0.058500506 -0.014243734 -0.09149913 0.03845065 0.03915361 -0.010568191 0.056984704
used -0.020739807 0.03878328 -0.008656176 -0.0039301957 0.041695096 -0.06693602 -0.0036052943 0.0111349095 -0.050250806 0.028218405 -0.06824332 -0.03985251 -0.018239982 0.06541355 0.0049882024 -0.022497829
home -0.02128385 -0.028424947 -0.046142563 0.043739203 -0.03964102 0.0058711544 -0.0076662414 -0.043874376 -0.048667714 0.051973015 -0.02662895 0.040695224 0.02992238 -0.010652767 0.03687684 0.0083736675
either 0.0149193965 -0.02383178 0.019714441 -0.04935605 -0.04710839 -0.038521443 0.068214945 -0.021252722 -0.060282607 -0.0057527795 -0.021028882 0.03476912 -0.011937298 0.048916973 0.006991251 -0.0052067675
short -0.043926157 0.022686634 0.05975565 0.031567995 -0.09162744 0.049792524 -0.04216583 -0.0021711471 0.06224864 -0.028786307 0.05681451 0.01283531 -0.0067552608 -0.06418615 -0.057154804 -0.024109473
line -0.006751698 0.077646986 -0.052343577 -0.0126471985 -0.03900103 -0.0062685045 0.015325609 -0.077664964 -0.028381823 0.024208495 0.001619841 -0.017777424 -0.021362051 -0.0026598172 0.063852735 0.023352062
given 0.0172501 0.045806043 0.010088831 -0.033471186 -0.010949656 0.038641702 -0.0553706 -0.057970766 -0.0048662117 0.0428044 -0.049789283 -0.0016997686 -0.022451332 0.015203993 -0.05586428 -0.032525785
men -0.020610461 0.00047220185 -0.028283302 -0.020785995 0.039823066 0.022194568 -0.05016265 -0.018603262 -0.052567795 0.003087682 -0.009201208 -0.015620075 -0.015344651 -0.040615216 0.03375761 0.00054115703
top -0.0042360914 -0.0038601125 0.020404113 0.031158512 -0.12773967 0.068006046 -0.0071939426 0.024136653 0.018351376 0.011509572 0.102220535 0.021743782 -0.021926658 -0.08002705 -0.031512145 -0.061114635
dead -0.023282045 -0.025227007 0.025515009 -0.007353592 0.031796142 -0.03644376 -0.012573354 -0.0009787171 0.013782662 0.031886507 0.03383852 -0.023621969 -0.0073010735 0.05399712 -0.047833685 -0.019745177
budget -0.0058953953 0.02340319 -0.02237451 -0.033151865 -0.032367434 0.007285109 0.07316068 -0.015190514 -0.0075343945 -0.04845312 0.06420836 0.022839941 0.06537995 0.029931813 -0.05733351 0.010158177
try -0.013182514 -0.030893443 0.026288232 -0.06986979 0.0068308427 -0.055206068 0.012446169 0.009441257 -0.0020837449 -0.0076169553 0.044237632 0.0030128965 -0.052725397 0.024973305 0.061262455 0.033873502
performances -0.0048096348 -0.0729167 0.020505402 -0.007911673 -0.16941096 0.01794302 -0.06966247 0.07206655 0.040515028 -0.0078055714 0.08401132 0.040977485 0.0063473918 -0.09283342 -0.0381815 -0.091089584
wrong 0.017438285 0.026055865 0.0738497 0.030363178 -0.08685582 0.035893027 0.0041527897 -0.024623264 -0.028338566 0.055282306 0.062150087 -0.034211338 -0.035219252 -0.019445946 -0.03476326 -0.04514969
classic -0.002703741 0.026102614 -0.03315897 0.02070063 -0.021519814 0.07118801 -0.026382953 0.0062100543 0.04110616 0.017882328 0.003231781 0.048452873 -0.006749627 0.0017578937 0.010082118 -0.025930237
boring 0.1030206 -0.012765061 -0.067750394 -0.08281755 0.0098592015 -0.057513 0.07372183 -0.102772765 -0.09449662 0.0953726 0.041336264 -0.13538985 -0.05520295 0.10010604 0.07713538 0.03890463
enjoy -0.059939828 -0.08441768 0.074983776 0.04976265 -0.071036145 0.032843936 -0.01723264 0.08635153 0.03358965 0.015531193 0.0016659194 0.037751965 -0.03753212 -0.06732822 0.0029041388 -0.09685152
need -0.01594888 -0.002663347 0.016637499 -0.04841318 -0.014335079 -0.017400619 0.015844082 0.015010433 0.0049376646 0.00931205 0.023574768 -0.01650921 0.06333738 -0.015266083 0.046286374 -0.0100446865
rest 0.0034302464 -0.054246083 -0.017416911 -0.006582556 0.016091201 -0.030422108 -0.09527103 0.06782822 0.016397193 0.022448309 0.035730053 9.563352e-05 0.050496552 0.049549393 0.008289756 0.016269663
use -0.028978575 0.049230564 0.03940493 -0.009850062 0.004873448 -0.034151055 0.022833876 -0.089779764 0.035950106 0.069765165 0.03212892 0.0128039215 -0.049664665 0.022723967 -0.0051741046 -0.039878845
kids 0.013715404 0.022701796 0.0007487543 0.04315767 0.034343164 0.008614007 -0.027891304 -0.028643215 0.046377093 -0.0026454336 0.047724143 0.039416015 0.033416435 -0.0010811778 -0.007256736 -0.060752023
hollywood -0.047586173 0.005375606 0.005899589 0.03634309 0.021373553 0.002867538 -0.08168845 -0.026062889 -0.043892935 -0.036039304 -0.10089624 0.011260237 0.03989669 -0.03996347 0.03856298 0.04777346
low -0.013556989 0.019815624 0.0048062457 -0.029901827 -0.055786878 -0.07012716 -0.021243881 -0.058784615 0.040195774 0.0146936355 0.04929556 -0.038525026 -0.0176699 0.079990074 0.028142693 0.06820689
production -0.0354285 0.04246361 0.056033608 -0.023890197 0.016023384 -0.06263319 0.070132755 0.043178402 -0.059532944 0.03577086 0.06251175 -0.061569985 -0.067298464 -0.018322254 0.034375526 -0.012094634
until -0.02057098 -0.022116046 -0.009951101 0.007806194 0.03020195 0.08444519 -0.08397628 0.008430769 0.04623534 -0.0056958385 0.010194511 0.07966024 0.06636833 -0.03439322 -0.0605752 -0.07026843
along 0.050714362 0.016238458 0.023535907 -0.06168627 -0.07990058 -0.029848581 0.015690155 -0.006058235 0.037277985 0.032952845 0.06482098 0.051865857 -0.028690578 0.046754282 -0.02157249 -0.015119656
full 0.009797876 0.004365926 -0.016349526 0.061944466 -0.0104753245 0.011088305 0.025271684 0.03729516 -0.024966117 0.0037160858 -0.0024920916 0.02064602 -0.012309784 -0.0652893 0.053604253 0.011304242
friends -0.005879005 0.02954235 -0.00653299 0.04417926 -0.036180004 -0.0007431023 -0.019506965 -0.0072170137 0.063056745 0.034176987 0.030683111 0.0437408 0.048814483 -0.00064115983 -0.030184377 -0.018617854
camera 0.04150538 -0.02436161 0.014260672 0.08132529 0.084476374 0.036033805 -0.082934916 0.0038074271 -0.013497604 0.036065273 -0.064652376 0.0038397347 0.08138833 -0.045790426 0.011543525 0.012384704
truly -0.034813408 0.009561501 -0.005161433 0.017754713 -0.14268449 0.025499154 0.00039639376 0.0044432716 0.06046856 0.02335077 0.14093417 0.0014451288 0.040047333 0.008510045 -0.03990172 -0.020650467
women -0.011210789 0.058123123 0.0021659315 0.024643522 0.046068594 -0.06917313 0.004578275 0.0273244 -0.073730834 0.0012731487 0.011288338 -0.03871243 -0.038376518 0.039554466 -0.012494785 0.0141042145
awful 0.120156355 0.09935843 -0.122062944 -0.033968847 -0.089732006 -0.104200125 0.12352618 -0.099635266 -0.13553526 0.13749485 0.084820755 -0.073062986 0.058492694 0.1030418 0.1331084 0.119402274
video -0.036875594 0.03455185 -0.049222156 0.031956796 0.008092712 -0.007825717 0.01958762 0.029347328 0.0064104055 0.01049316 0.0765848 0.019275958 -0.04326251 0.050991096 -0.03854414 -0.0034010645
next -0.041539747 0.036345653 -0.031050136 0.013446949 0.008267679 0.04588937 -0.041960448 0.049161796 0.037739582 0.015562436 -0.040156342 0.02937104 0.019272845 0.01854773 0.0295679 -0.0067931344
tell 0.014743141 -0.041281246 -0.021032555 0.024569103 -0.0024501686 0.03566019 -0.042010725 0.017703718 0.040771972 0.012291112 -0.043635722 -0.03554767 0.003742882 0.02666446 0.015507132 0.033906415
remember -0.04064093 0.0059446665 0.017370254 0.048244357 0.0682577 0.029799664 -0.023037184 -0.030117728 -0.031956527 0.017702118 -0.13129279 0.0204437 -0.024577029 -0.062784046 0.05513781 0.009576882
couple -0.0027212997 0.03253765 -0.029090028 -0.039651383 0.008152516 -0.013844312 0.027910372 0.043584798 -0.0296978 -0.00011601391 -0.03126157 -0.059976853 0.07013399 -0.010880206 -0.060175464 0.006052323
stupid 0.06306545 0.073005736 0.015459441 -0.057043895 -0.035695102 -0.07505007 0.042422127 -0.079534665 -0.024927005 -0.009606721 0.011858529 -0.015472815 0.0524049 0.027959058 0.061125487 0.0003042817
start -0.01913161 0.061495993 -0.0441801 0.0009161922 0.041439425 -0.01370882 0.07358828 -0.0061510783 -0.021584166 0.032630965 -0.018981393 -0.016239885 -0.054870717 0.09063108 0.07567376 0.012663963
stars 0.04405453 0.022180999 -0.037125755 0.058152955 -0.07596857 -0.016334865 -0.047039118 0.044604912 0.042898495 -0.05176454 0.007994187 0.031834383 0.018588781 -0.04877295 0.036495253 0.030253764
perhaps 0.054251153 0.06972788 0.013630137 0.04222153 0.102758914 0.032561317 -0.040793017 0.020706378 -0.039424162 -0.009981461 -0.030931532 -0.046457767 -0.057262704 0.03674536 0.047557507 -0.006688824
sex -0.056561813 -0.030890033 0.013190332 0.0033791806 0.11275601 0.016986698 -0.0042103026 0.008042731 0.0076332935 -0.057176072 -0.042665634 0.055490293 -0.001142458 -0.017395934 -0.033510618 -0.01915434
mean 0.052890502 0.021814052 -0.00019906448 0.042873792 -0.037145346 -0.05210342 0.04841217 -0.07725961 -0.049786665 -0.021145958 -0.07384998 -0.08857727 -0.025284402 0.046261374 0.0014762934 -0.025403013
came 0.012568667 -0.023503123 0.030270044 0.01630828 0.008836841 -0.022191934 0.008601031 -0.00063273957 -0.036759477 0.019473763 0.011849381 0.027056169 0.030186621 -0.046962965 -0.016627295 -0.037875634
recommend 0.015963947 0.017566659 0.043091334 -0.10970054 -0.12948084 0.04100613 0.062153462 -0.0022083633 0.018888615 -0.043363202 0.11453511 0.006394069 -0.023053663 0.02718563 -0.07650257 -0.036520783
let 0.0017210589 0.041661505 -0.030840417 0.0042826547 0.0059934016 0.015866464 -0.004520118 -0.042548772 0.049264908 0.011101557 0.030874323 0.018674137 -0.058844488 0.02790409 0.005976614 -0.01879084
moments -0.035435855 -0.033615477 0.015647894 -0.02175239 -0.07789303 0.014631065 0.02412232 0.052834503 0.019528473 -0.043260776 0.084669836 -0.016215712 -0.01527969 0.029291667 0.0034219567 -0.015567977
wonderful -0.1226761 -0.061339118 0.109988384 0.07729725 -0.07533072 0.15690975 -0.079274625 0.11662218 0.13830037 -0.14469582 0.061613563 0.12827559 0.11409053 -0.1529203 -0.089988485 -0.088551305
episode -0.0064137266 0.037009213 0.0009715291 -0.023288084 -0.02083969 0.037123177 0.0024520867 0.04458831 0.048929706 -0.042476565 0.069455154 0.057885345 -0.010197064 -0.0065023075 -0.08027649 -0.018251063
understand -0.014431364 -0.048791587 0.032668613 0.048595395 -0.06268036 0.021198813 0.034947652 -0.02394275 0.0018153226 -0.011766107 0.015028894 0.028540669 -0.021138202 -0.021927612 -0.0155724315 -0.021985289
small -0.024019402 0.032690376 0.012985658 0.010083661 -0.0012052945 0.0008805989 -0.032566793 -0.0067648725 0.0015940405 0.0065074414 0.03465692 -0.024261007 0.0018593146 0.015443492 -0.035263747 0.0043134843
face 0.038316377 0.028784638 -0.05009293 0.085559756 0.08503373 0.016728668 -0.021286372 -0.016949123 0.031144742 0.013180146 -0.10466157 -0.07510402 -0.07076006 -0.0029853384 -0.030844523 -0.01841721
terrible 0.04974215 -0.05330094 -0.058468044 0.066938624 -0.046820387 -0.058905467 0.08972297 -0.11445186 -0.01593232 0.04852764 0.022523632 -0.033350766 0.014270288 0.115908064 0.030162157 0.05510355
playing 0.06262064 -0.0066379607 -0.027305221 -0.04120926 0.07753435 -0.0370898 0.04396431 0.024990302 0.035243995 0.0136124585 -0.06286293 -0.016359579 0.008152931 0.05539608 0.08167506 0.045216892
school -0.057852313 -0.0376373 -0.040185533 0.020997033 -0.04218935 -0.03740048 -0.014546638 0.010271197 -0.003720412 0.05261975 0.05713853 -0.0075170407 0.06398918 -0.03445472 -0.014733627 0.042674366
getting -0.01093062 0.0025225915 0.014607732 0.06192165 0.05095038 0.04688666 -0.06636096 0.0629726 -0.036841482 -0.0017211542 -0.090327695 -0.006376121 -0.015394982 0.016324166 -0.050223585 -0.029507052
written -0.0018018433 0.06588547 -0.00853778 0.045682877 -0.027764203 -0.04561531 -0.021394866 0.0032201512 -0.02016229 -0.020894147 -0.027263707 0.019935181 0.010958001 0.03009601 0.055828806 -0.04073461
doing 0.08525531 -0.031193262 -0.038960587 0.016981505 -0.0066007813 -0.098722145 0.030645097 -0.022165587 0.0016072984 0.0015584223 -0.009811885 -0.011019889 -0.0672583 0.018178374 -0.005982378 -0.023615422
often 0.0011919908 -0.06680842 0.062682815 -0.002257294 -0.081480555 0.033014152 -0.037580837 -0.01690846 0.033499323 0.016538896 0.00044972228 0.066795535 -0.004369075 -0.010580923 -0.07847641 -0.0024839854
keep -0.020606183 0.00032194317 0.015083448 0.009823232 -0.083952956 -0.01680037 0.017431373 0.010690429 0.035868634 -0.013625216 -0.00075501896 -0.014514392 -0.032256622 0.027546506 -0.085971825 0.051179953
early 0.040573843 0.07737065 -0.012320741 -0.0313984 0.025746064 -0.04410551 0.07082831 0.002276527 0.033923045 0.036755405 -0.0026079128 0.019990236 0.01015365 -0.03335973 0.038679015 -0.022897594
name 0.036601044 -0.002935637 -0.011959517 0.012766958 -0.035895683 -0.06357082 0.010790097 0.029090403 -0.050758656 0.044223122 0.039312683 -0.035957184 0.061880585 0.0070233163 0.021875264 0.015295253
perfect -0.09881925 -0.056481633 0.07471967 0.014973063 -0.084877424 0.15833676 -0.006360751 0.09692629 0.105948284 -0.044459417 0.033196315 0.104327396 0.06832665 -0.11919214 -0.07546011 -0.07498845
style -0.015249161 -0.019763505 0.016490929 -0.029389443 0.0030995975 0.017925212 0.02285805 -0.028652567 -0.0004959896 0.011287717 0.012317492 0.02967217 0.053836785 0.0017976852 0.046797223 -0.014762553
human -0.05963811 0.007607926 0.012174294 0.013677132 -0.08840676 0.056793865 0.024345815 -0.03777576 0.020361621 -0.009687965 0.00907223 0.03150014 0.012311469 0.0015171501 0.026231471 -0.028143596
definitely -0.0843779 -0.046353552 0.040996317 0.013615767 -0.048251554 0.05771039 -0.048740968 0.04503428 0.07756939 -0.10129891 0.004863445 0.028659707 0.011120499 -0.06191712 -0.060020816 -0.040524848
gives -0.0013182894 0.060500626 -0.012136604 -0.009705139 -0.08274113 -0.009209181 0.039223965 -0.026950449 0.041393843 -0.04926954 0.07491326 -0.003588989 0.01352869 -0.0087447 -0.069263674 -0.018731024
others -0.005066877 -0.032640774 -0.021716483 0.083734035 0.06832785 -0.031427927 -0.062059104 0.024157677 -0.018202348 0.033475574 -0.074674994 0.04883713 -0.022958452 0.00658373 -0.06364188 -0.010516954
itself 0.010032427 0.100297 -0.008224149 -0.045261856 -0.019268546 -0.004844129 0.013518073 0.0087914 -0.06273818 0.043273862 0.10517689 -0.0599537 -0.06489246 0.082474686 0.017230839 0.08439684
lines -0.0029268088 0.019307254 0.025704782 -0.0017852895 -0.068174556 -0.035766926 -0.014607063 0.0023267325 0.0028276448 0.010073137 0.025005292 0.006839481 0.020640358 0.048159238 -0.025780952 0.042146005
live -0.03388022 -0.028631441 0.036106016 0.0504174 0.047595996 0.008589577 -0.09220599 0.037172288 -0.011496839 -0.056304824 -0.042569917 -0.001411427 -0.020363607 -0.03581697 -0.039751813 -0.050213993
become -0.009579899 -0.027574215 0.0046840264 0.050873764 0.023645168 0.020268524 -0.014290359 0.026343064 -0.0117799835 -0.014187874 0.038109645 0.05721138 0.03934123 -0.033520494 -0.013210564 -0.00016780672
dialogue 0.08497451 0.024503158 -0.057633676 -0.08690187 -0.05023464 -0.025966603 0.04691394 -0.034542326 -0.00406443 -0.011956549 0.07561481 -0.033078644 0.018240035 0.026369037 -0.019936878 -0.016226497
person -0.023461195 -0.020881936 -0.056265976 -0.01572176 0.040610407 -0.02253131 0.019530276 0.020012273 -0.0046284907 0.016423332 0.016732313 -0.048058733 0.002370457 0.029637555 -0.019967016 -0.021460619
lost 0.018628173 0.074006855 -0.06682797 -0.015288067 0.07783012 0.017085684 -0.034579996 -0.0145569015 -0.008761385 -0.054846544 -0.027658837 -0.0651141 -0.022045154 -0.0040200553 0.04239933 -0.015607612
finally -0.027374733 0.048190255 0.04474727 0.058806743 0.030178072 -0.016590118 -0.036348827 0.04691547 -0.0020221507 -0.01236994 -0.08389206 -0.023521475 0.011831646 -0.0040441533 0.03190532 0.027918283
piece 0.07776311 0.07070834 0.03817558 -0.040411722 -0.023881756 -0.05412481 0.06625734 -0.05773907 -0.007574269 0.030120853 0.09942822 -0.024657859 -0.009997974 -0.005573799 0.06482678 0.035538975
head 0.018367117 -0.021563511 -0.0344008 -0.010738256 0.016403355 0.007051564 -0.0049325265 -0.025224553 -0.06759261 0.051407624 -0.009807403 -0.006998655 -0.020870049 0.011840609 -0.033842392 -0.011812839
case -0.06721378 0.022228386 0.042945676 -0.024002397 0.0058561782 -0.0113745155 -0.041434962 0.035438187 0.07855964 -0.010447922 -0.041622873 0.034226585 -0.01150988 -0.054206863 0.0112419 0.023916448
felt -0.019694114 0.031166973 -0.050957344 -0.029695466 0.08015026 -0.02490949 0.03413379 -0.049756788 0.021691484 0.01286926 -0.0019968695 0.026645852 0.0081552975 -0.027508063 0.039375864 -0.0052903504
yes 0.023179833 0.0017391394 -0.0073863817 0.11595139 0.12288039 0.079280235 -0.09014839 0.05195102 0.037301674 -0.06178373 -0.14238673 0.06482635 0.05070753 -0.0048234314 -0.013127962 -0.078269124
liked -0.09900256 -0.067579426 0.059744935 0.05319648 0.023286197 0.03608017 -0.032147545 0.024627598 0.083436325 -0.086097084 -0.07955357 0.0029281555 0.001231772 -0.0114078475 -0.028793532 -0.062432192
supposed 0.06531265 0.05256702 0.016775629 -0.0057933573 -0.044869676 -0.033254586 0.0959781 -0.074659064 -0.08424889 0.051975284 0.046474908 -0.059707977 0.004802555 0.12258343 0.037393894 0.11114449
title 0.025899785 0.02644195 -0.01926979 -0.031227933 -0.101480804 -0.02606653 -0.03687535 -0.060490537 -0.00043612244 0.04488602 0.09455787 -0.048061356 -0.053015653 0.057965808 -0.05937884 -0.008309118
couldn't 0.10475513 0.098668836 0.0088495575 0.014122206 -0.022688251 -0.07312724 0.061637122 -0.034351997 -0.013033572 0.035226 0.029789172 -0.11397802 -0.043280225 0.048812907 -0.049583133 -0.018080978
absolutely 0.05100772 0.0379729 -0.046528198 0.012643643 0.011194738 0.0049444125 -0.037386052 -0.019034809 -0.014240907 0.03633542 -0.024416115 -0.05265242 0.03425605 0.051365666 -0.013662169 -0.0543004
white 0.026693378 -0.047696296 -0.012009978 0.032889117 -0.057859883 -0.041697286 -0.0008500023 0.014280814 0.028265148 0.034798186 0.034464214 0.074470855 0.011972386 -0.003920961 -0.0025854716 0.012701915
against -0.023406662 0.038967393 0.018692048 -0.020843787 -0.019131085 0.018177995 -0.035337854 9.387468e-06 -0.012819606 0.010410019 -0.068172865 0.019466795 0.015248646 0.037420057 -0.010482832 -0.042750515
boy 0.01664009 -0.0027242133 0.01870549 0.02077124 0.04073497 0.073386654 -0.07689042 -0.006855071 0.06035159 -0.016099231 -0.033599958 -0.0060838982 -0.0165814 -0.092131965 0.045221265 -0.015938167
picture 0.04634363 0.028884681 0.041240152 -0.078198135 -0.078598976 -0.02852858 0.008176627 -0.03283485 -0.005035849 -0.025470559 0.08949124 -0.0016702523 0.036807276 0.06494894 -0.042685177 -0.018036533
sort -0.04761941 0.015732782 0.02685433 -0.08127031 -0.03898972 -0.038323548 -0.070112675 -0.0014145997 -0.044884212 -0.040266324 0.07687927 0.013064401 0.049626257 -0.0048759193 0.0120545095 0.036151864
worse 0.12526235 0.044102717 -0.049187757 -0.09955644 -0.06973737 -0.042116534 0.12699983 -0.1310479 -0.07717211 0.1029583 -0.008783059 -0.11424095 0.03737645 0.09936158 0.090934195 0.009336188
certainly -0.055687368 0.0005651594 -0.054435994 0.010724081 -0.011367358 -0.017593568 0.007793635 0.032214463 0.033927284 0.039545894 -0.09385999 -0.00081282976 -0.009036627 -0.009892176 -0.02387553 0.016605254
went 0.0015933879 0.042766146 0.013988253 0.0021414093 0.03823455 0.01597102 0.021527397 -0.035900947 -0.06892641 0.008021739 -0.028912643 -0.05704863 -0.041209072 -0.0046604914 0.048305 -0.015414208
entire 0.05679978 0.06706193 -0.0151783 -0.08440978 -0.12085935 -0.074359484 0.0837769 -0.08660008 -0.06159345 -0.003124788 0.10496164 -0.028605685 -0.025079742 0.010245099 0.009556798 0.007730164
waste 0.12305872 0.02118141 -0.1669453 -0.11833426 -0.05415547 -0.13765958 0.03405244 -0.17334351 -0.16805136 0.21154039 0.19781995 -0.18851554 -0.11558796 0.14314476 0.11027637 0.20286217
cinema 0.017407153 -0.07452639 0.022667259 -0.0036210236 0.011508444 -0.0044252486 0.0007827684 0.05647226 -0.001593377 0.0120576 -0.09138847 0.042832825 0.03221801 -0.023617145 -0.044777967 -0.032696806
problem -0.021417115 0.05849623 0.03450124 -0.007355251 0.040777575 -0.07922221 -0.048373025 -0.027450955 -0.044600807 0.045308057 -0.052773423 -0.052084886 -0.055720676 0.061708268 0.008939403 0.095290825
hope 0.026297731 0.019402552 -0.01919453 -0.097060144 -0.04338975 -0.0036124263 0.05569705 0.009395051 0.020387044 -0.057599925 0.05180872 0.01995705 -0.037622895 0.013080109 0.0016081455 -0.009461375
entertaining -0.13519931 -0.089037955 0.04079496 -0.009861158 -0.092238806 0.13119157 0.021348773 0.07663117 0.105354525 -0.0980135 0.13342343 0.10592028 0.035081543 -0.10707386 -0.11205269 -0.11203021
she's 0.029884525 0.08276714 -0.027360048 0.0009564914 -0.013457854 -0.024429355 -0.0012158295 -0.0361704 -0.051299874 0.006346271 -0.07564992 0.013540413 -0.00065912685 0.054581374 -0.016144281 0.033893295
mr 0.009930373 -0.020257989 -0.054370806 -0.064223304 -0.054590277 -0.006575578 -0.016506959 0.0032759502 -0.0014961264 0.031510595 0.013491272 -0.0011476277 -0.0521627 0.04419448 0.011456864 -0.037575115
overall -0.030753678 0.055061623 0.0514837 -0.019633178 -0.083589226 -0.010488275 0.049869403 -0.016655937 -0.036731564 0.054042827 -0.0010990548 0.054766715 -0.010735092 -0.06108733 -0.019853717 -0.043679252
evil -0.037509345 0.023340875 -0.059468675 -0.0738741 -0.0070998706 0.0017990656 9.819298e-05 0.013540265 -0.008623799 -0.008040786 0.03005147 0.0013849218 0.013312841 -0.013848913 -0.028383011 0.04706272
called -0.07680933 -0.02312692 0.052576452 0.10846982 -0.014630387 0.004487762 -0.0638054 0.022447439 0.023363335 0.020280255 0.010587617 0.015137398 0.08435132 0.0023771285 -0.0041819816 -0.04150903
loved -0.0996337 -0.029303595 0.03513898 -0.032718588 -0.038934525 0.08883199 0.038894694 0.12030763 0.11046932 -0.03421609 0.030596329 0.03891644 0.041062262 -0.029879775 -0.08095478 -0.054885354
based -0.01994753 -0.023036696 0.037245367 -0.04008516 -0.053804874 0.040121086 -0.013221305 -0.02748247 0.0539011 0.021592468 -0.018335328 0.024318935 0.0065816585 -0.049541637 -0.00026317764 -0.039990854
oh 0.046126325 0.10912548 0.0047090105 -0.031642854 -0.05415627 -0.13201916 -0.0003803742 -0.070732154 -0.092046686 0.06350055 0.054991163 -0.09696744 -0.07883653 0.03311464 0.016085489 0.020423273
several 0.0005403176 -0.03468147 0.027083864 0.01263271 -0.032764606 0.019608181 -0.007149953 0.007721689 0.037606575 -0.05695725 0.025518164 0.028815014 -0.029144553 0.026740542 -0.007329302 0.019506969
fans -0.04186311 -0.04293619 0.022919973 0.016301889 -0.110535 0.091404565 0.01522327 0.012101515 0.08739245 -0.06943306 0.02913819 0.07827646 -0.027901847 -0.088612296 -0.11646082 -0.058666162
mother -0.021257484 0.033822857 -0.08488633 -0.025442716 0.003980331 -0.033075392 -0.003507316 -0.041564036 -0.015558639 0.051301222 0.038372137 -0.057553045 -0.0687507 0.0859597 0.015924426 0.007828394
drama -0.01808982 0.029022686 -0.061620697 -0.08569507 -0.065646805 0.04207985 -0.00015818489 0.0084909145 -0.020141909 0.021766577 0.042024385 0.031965427 0.041881394 -0.0564483 -0.037666842 -0.05682924
beginning 0.025090797 -0.032472637 0.062354222 0.026272813 -0.03463543 -0.018511284 -0.017246902 -0.02290544 0.0010855698 0.024788188 0.03526552 0.06608234 0.04079435 -0.03546443 -0.041792113 0.0060199834
killer -0.044921245 0.023508338 -0.0047011306 0.03703581 -0.097885005 -0.035450734 0.007254576 0.046356358 -0.0087786075 0.022252712 -0.015916307 -0.046368934 0.06928493 -0.022526693 -0.055071797 -0.008491712
lives -0.007821763 0.022633366 0.005893281 -0.017353904 0.0002718859 0.006797548 0.034027174 -0.067228906 0.031293932 0.021785975 -0.008204543 0.041311253 -0.0043165637 -0.01569034 -0.038704183 0.05515494
5 0.039100636 0.030682044 -0.009397416 0.004945313 0.021396985 0.013292416 0.02829277 -0.036520135 0.007461858 -0.025870696 0.044828393 0.026804212 0.024924843 0.039594013 -0.037189506 0.038881518
direction 0.0440001 0.029103348 -0.06740196 -0.038711272 0.027925614 -0.06405326 -0.035600726 0.0077140075 -0.022321846 0.045808204 0.016645696 -0.03540945 0.043998465 0.06632729 0.033664208 0.049261816
care 0.012848957 -0.031452995 -0.053284157 0.027960222 0.064302966 -0.04910089 0.04815366 -0.06429868 -0.064503476 -0.0082157925 -0.035537165 -0.025608549 0.06606192 0.06905573 0.052131083 0.04457943
already -0.009121306 -0.011163599 0.022027394 0.0028712586 0.013363955 -0.029038113 -0.024808655 0.0009239903 0.020912088 -0.02282483 0.02315527 0.008081177 -0.054744665 -0.015536656 0.025824219 0.041367732
becomes 0.043099284 -0.059682928 -0.033685785 -0.064817645 0.00816985 -0.00891365 0.021412011 0.024343373 0.010648601 -0.0010542528 0.039925646 0.047033004 -0.0051852004 0.036356658 0.012055431 0.05484709
laugh -0.0057640886 0.0139987795 0.051454436 0.06414805 -0.06111501 0.014203908 -0.050563697 -0.039975032 0.036917757 -0.005207104 0.07192529 0.027633565 0.006964777 0.05221878 -0.056760322 0.044842944
example 0.0070919706 -0.021712452 0.0076261857 -0.017549217 0.017230209 -0.0055637243 0.048646834 -0.049576733 0.007122067 0.075601414 0.08036099 -0.048501495 -0.04141606 0.0075292033 0.026414469 0.047043964
friend 0.009772922 -0.022019446 -0.054569475 -0.02340968 -0.06054266 -0.010657636 -0.034524348 -0.038677245 -0.031158714 0.022684036 0.027339995 -0.016893098 -0.00046247971 0.05200113 -0.031575896 0.00757978
dark -0.011662054 0.008589544 -0.002653856 -0.075323455 -0.038441245 0.05743967 0.0017372126 -0.00934209 0.046587266 -0.024113504 0.064604625 0.05701037 -0.0042653065 -0.006231558 -0.012014184 -0.042074677
despite -0.027209636 0.0040971693 -0.017563364 0.05507079 0.011475661 -0.01541403 -0.0015700024 0.018433234 -0.024119548 -0.019330095 0.05571789 0.0030913544 0.011345654 -0.022912921 -0.024800757 0.010051264
under -0.0018862496 0.016199097 0.0071001425 0.01574957 -0.017367696 -0.022770653 -0.01651888 0.022703523 -0.035030395 0.034856047 -0.058012165 0.047025464 -0.06009105 -0.03657238 -0.0010105548 -0.024345981
seemed 0.019232942 0.060691535 -0.041322883 -0.023483623 0.044292226 -0.08024835 0.06108944 0.009197387 -0.0127832135 0.025230378 -0.031619053 -0.007912894 -0.0011193409 -0.0047690123 0.07988565 0.04417443
throughout 0.027549945 -0.06515876 0.03335795 0.009797367 -0.0038812095 0.057209942 0.023928849 -0.0022355055 -0.013732266 -0.010543991 -0.026077414 0.079498366 -0.01291883 -0.027500901 -0.012852986 0.012624
4 -0.00434017 0.014313966 0.0147318505 -0.01468444 -0.030231783 0.025315776 -0.044132683 -0.042087734 0.025682054 0.032854952 0.038613025 0.056016773 -0.021205053 0.0060658483 -0.07457458 0.0012301757
turn 0.0007962498 0.034494247 -0.09059876 -0.09043511 0.07881609 -0.068019934 -0.0071198284 -0.03758453 -0.0684094 0.00415365 -0.026668359 0.006740863 -0.044618845 0.04805019 0.050968543 0.023788435
unfortunately 0.048661206 0.10325255 -0.028208548 -0.011657604 0.05041839 -0.034723986 0.018690003 -0.11201022 -0.07055307 0.13250664 0.010229737 -0.13912633 -0.107958615 0.13630266 0.0032707723 0.05631379
wanted 0.010532319 0.0486714 0.056270007 -0.06605186 0.010751901 0.01425765 0.05188209 0.0246955 0.06611924 -0.0017835064 -0.025270136 -0.036063246 0.057287525 -0.03617186 -0.07194759 -0.03272483
i'd 0.0009930287 -0.0035480065 0.053788632 0.060986266 0.049504843 0.06008638 -0.011206576 0.06291611 0.014220098 0.015825016 -0.0056062136 -0.011566694 0.03984016 0.016664453 -0.023582838 -0.03721527
 0.0011463914 -0.01286161 -0.015395285 -0.0012069227 -0.024635615 0.036435325 -0.0199382 -0.045478325 -0.014704535 -0.057018746 0.037774865 0.015136905 0.05234387 0.004909434 -0.00088251685 -0.0436489
children 0.0011994847 0.029474346 -0.015417541 0.038331978 -0.04637309 0.049376417 -0.050861314 0.019351825 -0.08185006 0.02321306 -0.017227862 -0.026357777 -0.05568266 -0.039745964 -0.018256702 -0.0037271753
final 0.002226423 -0.02002257 0.048799273 -0.025962362 0.026304994 0.017378153 -0.023870016 -0.017213529 0.04824556 -0.006240922 0.02383471 0.019051164 -0.01506448 -0.001923715 0.038890593 0.0053188773
fine -0.07076993 -0.026889367 0.034914892 -0.04242267 -0.05002826 0.0115078455 0.040448133 0.08422176 0.07842067 0.0013006448 0.0593978 0.07895513 -0.0025937536 -0.010726849 -0.004990703 -0.06988058
history -0.060291275 -0.0041210796 0.007834079 -0.011865948 -0.019925917 0.051817376 0.021118606 -0.012320764 0.007258518 -0.053365495 -0.039183494 0.044019297 -0.02176207 -0.01516327 -0.04631001 -0.003353964
amazing -0.144237 -0.061627306 0.12504235 0.03638915 -0.08975181 0.15083615 -0.017341498 0.15143149 0.15497968 -0.097404726 0.10683927 0.11347676 0.065256886 -0.08500996 -0.1295027 -0.08583164
sound -0.0063025323 -0.02061157 -0.026358757 0.018578148 0.007356042 -0.013346289 -0.04996979 0.014994317 -0.051588356 -0.014084951 -0.058328167 -0.032746933 0.01376169 -0.012248913 -0.03224643 -0.04165781
guess -0.010625045 -0.03908632 -0.083459616 0.026859999 0.07984867 -0.08870031 0.004124462 -0.0067021167 -0.11415188 0.047826912 0.039694183 -0.014431188 -0.0840673 0.123710506 -0.038446326 0.047031164
heart -0.061047625 -0.0377934 0.031930678 0.023454344 -0.017491113 0.0776998 0.01831757 0.012484136 0.08133923 -0.02803414 0.034828655 -0.0066342717 0.051762417 -0.01385651 -0.06947802 0.008132614
totally -0.016894111 -0.04134727 -0.004914749 -0.004941263 -0.02255764 0.014819118 0.015566194 -0.03395443 -0.042492982 -0.014840411 0.07404072 -0.042355865 0.027504934 -0.033361077 0.072605796 0.021066193
lead 0.021787744 0.029556854 -0.033470728 0.03401472 0.012446656 -0.03016043 -0.04717319 0.028223662 0.013881739 0.018695772 -0.10463918 -0.052465364 0.037148718 -0.023360968 -0.03639178 0.059463162
humor 0.0034723962 -0.0005135366 0.0239503 -0.00063976226 0.008143595 -0.009565914 0.02567268 0.02643953 -0.016889265 -0.021167045 0.07972655 -0.03779289 0.014550383 0.019966507 -0.04218174 -0.019522252
writing 0.00035413698 0.07623556 0.0032286537 -0.05124532 -0.11103407 -0.0075021903 -0.020200739 0.015387073 -0.061390176 0.020115074 0.10476775 -0.07322785 -0.047621585 0.04672559 0.03169432 0.070079654
michael 0.03425954 0.005468139 -0.00066465547 0.013795881 -0.0060519194 -0.021990875 0.01775005 -0.014772512 0.035012957 -0.055390734 0.049603477 0.010682542 -0.028842442 0.027547931 -0.023799486 -0.0039969836
quality 0.057016063 -0.053654253 0.0017225433 -0.033672802 -0.07899813 0.032615125 -0.010181471 0.0210483 0.024190838 0.033365898 0.09519627 0.03409306 -0.033786226 0.0118112955 -0.07918906 -0.024962727
you'll 0.0020678772 -0.07557849 0.00051384454 0.06201464 -0.010772414 0.056847118 -0.08930242 0.04435066 0.008681594 0.010857927 0.08507241 0.051187694 0.054893218 -0.010547649 -0.02670973 -0.054015584
close 0.035503384 -0.038130745 0.05403149 0.046756234 0.0020083503 -0.030485287 -0.017688878 0.01729255 0.055989943 -0.04106746 -0.028430177 0.06426676 -0.018243253 -0.07722885 0.01126572 -0.08250409
son -0.04004455 0.03315175 -0.066315435 0.056848966 0.01799326 0.03966545 -0.013781062 -0.0045626825 0.0027748419 -0.038985383 -0.07627042 0.008432734 -0.011202821 0.002141243 0.035251588 -0.06728336
guys -0.034266155 -0.036600318 0.040695615 -0.003147285 0.06494433 0.017879084 -0.047896467 0.052550845 -0.007707686 -0.053647656 -0.04856746 0.03758329 -0.021459736 0.00477851 -0.043970194 -0.05473483
wants 0.039541464 -0.013190711 0.018819788 -0.08322379 0.015042136 -0.07164016 0.09679712 0.012391637 -0.035375815 0.011975521 -0.0033144122 0.019625833 -0.05532542 0.049133863 0.0024198669 0.014265796
works -0.065512374 -0.032588895 0.019063175 -0.000111911235 0.013735425 0.008547883 0.014249839 0.046510834 0.019314269 -0.030966485 0.030896168 -0.032490943 -0.014123851 -0.06004973 -0.0123741 0.0033862772
behind -0.018168064 -0.051185515 0.014191617 -0.010988109 -0.020198906 -0.04027065 -0.00022404338 0.021026988 0.020742018 0.03324907 0.04874451 0.014870645 -0.017086975 -0.006375852 0.048198227 0.04488335
